
//<![CDATA[

// a few things don't have var in front of them - they update already existing variables the game needs
lanesSide = 3;
patchesAhead = 30;
patchesBehind = 14;
trainIterations = 300000;

// the number of other autonomous vehicles controlled by your network
otherAgents = 0; // max of 10

var num_inputs = (lanesSide * 2 + 1) * (patchesAhead + patchesBehind);
var num_actions = 5;
var temporal_window = 0;
var network_size = num_inputs * temporal_window + num_actions * temporal_window + num_inputs;

var layer_defs = [];
    layer_defs.push({
    type: 'input',
    out_sx: 1,
    out_sy: 1,
    out_depth: network_size
});
layer_defs.push({
    type: 'fc',
    num_neurons: 40,
    activation: 'relu'
});
layer_defs.push({
    type: 'fc',
    num_neurons: 30,
    activation: 'relu'
});
layer_defs.push({
    type: 'fc',
    num_neurons: 20,
    activation: 'relu'
});
layer_defs.push({
    type: 'fc',
    num_neurons: 10,
    activation: 'relu'
});
layer_defs.push({
    type: 'regression',
    num_neurons: num_actions
});

var tdtrainer_options = {
    learning_rate: 0.001,
    momentum: 0.0,
    batch_size: 32,
    l2_decay: 0.01
};

var opt = {};
opt.temporal_window = temporal_window;
opt.experience_size = 5000;
opt.start_learn_threshold = 500;
opt.gamma = 0.9;
opt.learning_steps_total = 10000;
opt.learning_steps_burnin = 1000;
opt.epsilon_min = 0.0;
opt.epsilon_test_time = 0.0;
opt.layer_defs = layer_defs;
opt.tdtrainer_options = tdtrainer_options;

brain = new deepqlearn.Brain(num_inputs, num_actions, opt);

learn = function (state, lastReward) {
brain.backward(lastReward);
var action = brain.forward(state);

draw_net();
draw_stats();

return action;
}

//]]>

/*###########*/
if (brain) {
brain.value_net.fromJSON({"layers":[{"out_depth":308,"out_sx":1,"out_sy":1,"layer_type":"input"},{"out_depth":40,"out_sx":1,"out_sy":1,"layer_type":"fc","num_inputs":308,"l1_decay_mul":0,"l2_decay_mul":1,"filters":[{"sx":1,"sy":1,"depth":308,"w":{"0":-0.03510252229572675,"1":-0.15705403890375044,"2":-0.10663535902614944,"3":-0.04877938072812457,"4":-0.07880647847618172,"5":0.09579506488897911,"6":0.04165880108424753,"7":-0.06777379312062305,"8":-0.050338501073444605,"9":-0.031718037741345795,"10":0.043486916415424334,"11":-0.023288933528133497,"12":-0.050815560574628486,"13":-0.00866505018550828,"14":-0.026943741059423054,"15":-0.06451340247582611,"16":0.07268549159685792,"17":0.03386881281191783,"18":0.06568039649689077,"19":0.02086905214569268,"20":0.0001833606331573674,"21":-0.018001954436870696,"22":0.006579463525970241,"23":-0.028351561989504753,"24":-0.026150500432874976,"25":-0.07105817728187815,"26":0.006438959271751709,"27":0.05972435420974484,"28":-0.002815537504207001,"29":-0.017411459874949364,"30":0.18505012963903603,"31":0.16943194974008233,"32":0.08883642924691021,"33":0.004905980913687362,"34":0.03453440226135534,"35":0.0046963671166347955,"36":-0.15448601385879585,"37":0.00683803558307749,"38":0.15737874550425335,"39":-0.06165363951592664,"40":-0.0623499656919861,"41":0.052688769450543904,"42":0.056062296518745405,"43":0.04528848417779427,"44":0.012988348933800633,"45":0.18945688635208813,"46":-0.0003280003177929211,"47":-0.0345986676369035,"48":-0.005413399566551275,"49":-0.026980952258264704,"50":-0.036045415621788195,"51":-0.050128620645536096,"52":0.101631977898033,"53":0.11248860839027207,"54":-0.01627820496940602,"55":0.039509978627340986,"56":-0.10710310320427631,"57":-0.0949027522482152,"58":0.04477036826474152,"59":0.1605504077059845,"60":0.1194380807103409,"61":0.022330354244429536,"62":0.026989298517176318,"63":0.0693313200755376,"64":-0.021464490917022738,"65":0.006693177374434019,"66":0.09326278477044365,"67":-0.01765782037623811,"68":0.02244127116643755,"69":-0.07978380709217324,"70":0.018567314994049,"71":0.056115061349144374,"72":0.11033826400070522,"73":0.06795724981841231,"74":0.09682367772524285,"75":-0.04332971809994603,"76":0.1011592071306805,"77":-0.015913229688869192,"78":-0.07613543843980383,"79":0.0678411635299883,"80":0.1731168674635786,"81":0.08383030317428083,"82":0.018228997016471394,"83":0.00737214479595183,"84":-0.09053579635798088,"85":-0.07180955371802994,"86":0.046943288170877624,"87":0.12062621690374137,"88":-0.03090885896688406,"89":0.12173866815548189,"90":0.07636346648907205,"91":0.05745222298136014,"92":0.031864759851102,"93":0.05847937549228655,"94":0.14479001107508443,"95":0.013375291732674852,"96":0.03884973361406223,"97":-0.03283766261939929,"98":0.08995349489103249,"99":-0.003129960257719771,"100":0.028872249195817875,"101":0.05150475859226982,"102":0.1447285110335193,"103":0.05682124387469254,"104":-0.010923493730450397,"105":0.05841935379484136,"106":0.02792282371427505,"107":0.01962571110039924,"108":0.06400326231780033,"109":0.19567895902067456,"110":0.05233625751559847,"111":0.01071119110096152,"112":0.04184190028692531,"113":0.04874645662843725,"114":-0.010171805939102519,"115":0.009022459168608924,"116":0.10434104851928408,"117":0.07483217846098258,"118":-0.04756966730898719,"119":0.004113622237257166,"120":-0.013646202530899666,"121":0.009383270470847745,"122":0.09240573505012434,"123":0.12674941575263157,"124":-0.006804054099239017,"125":0.032252535998177824,"126":0.022426101987367972,"127":0.03942563475861756,"128":0.060177480240450894,"129":-0.028399908212728583,"130":0.06992406790810472,"131":0.11658006148595926,"132":0.01643381271707159,"133":0.0676631833458905,"134":-0.0013871853156555156,"135":0.027261953580526053,"136":0.03605676102992146,"137":0.14179159514894746,"138":-0.03713187880231104,"139":0.024495435823465472,"140":0.02645281597266602,"141":-0.09497438236111676,"142":0.13437794574536327,"143":0.04716623684728517,"144":0.15684620314039527,"145":0.03835913712167059,"146":0.02747603239845768,"147":0.01814913957500335,"148":-0.10022610482241558,"149":0.1255183174292496,"150":-0.01994335068053709,"151":0.11772525699564461,"152":0.01469271241613822,"153":0.042929865595519784,"154":0.010559139755237647,"155":0.039384547026114006,"156":0.12899424059625622,"157":0.04304424905944258,"158":0.13137528754419903,"159":0.09858684917995006,"160":-0.019688850802851578,"161":0.06179557325959469,"162":0.013431729962228722,"163":-0.053382524982812776,"164":0.10607015909712217,"165":0.07869492956891759,"166":0.10480432374999946,"167":-0.01949290447620721,"168":-0.012342216644022795,"169":0.06146722518940296,"170":0.1436158435072603,"171":0.106299040208257,"172":0.3406229762477839,"173":0.13866084640322301,"174":0.08530824451484637,"175":0.017877795752605778,"176":-0.002093547012103487,"177":0.06641358709587546,"178":0.09463803333995341,"179":0.18334310743689797,"180":0.18782138255569578,"181":-0.07693503201404579,"182":0.049786009360256726,"183":-0.09416892751945431,"184":0.14639442573019112,"185":0.16581491640302262,"186":0.08410403693175249,"187":0.1521452531786343,"188":0.016560932150917522,"189":0.011357797356611047,"190":-0.0384756084873989,"191":0.14922459596760565,"192":0.03759738957692754,"193":-0.022917154939488715,"194":0.12788267871636633,"195":0.00810963001766429,"196":0.015730827111598455,"197":-0.11400599697344889,"198":0.10016081602312137,"199":0.04807948983162324,"200":0.07465502138715752,"201":0.08681961062989571,"202":-0.041758854009857314,"203":-0.00035291797068282346,"204":0.03739784109460412,"205":0.1144084804453502,"206":-0.1527263662629762,"207":0.055260311584957644,"208":-0.003600548262696735,"209":-0.008536761955214318,"210":0.016646089327642128,"211":0.005936941138660732,"212":0.055530419603969684,"213":0.14023753628693075,"214":0.07359396148598238,"215":-0.11523818884376988,"216":-0.05585694653647632,"217":-0.004121539964862122,"218":0.04176403240798885,"219":-0.06014401453019036,"220":0.18094341504615138,"221":-0.09495563496820553,"222":-0.05970825056112451,"223":-0.028652277742363414,"224":-0.08286062772815266,"225":-0.006447179435097798,"226":0.07727166722400355,"227":0.1308307329245907,"228":-0.014388810600362333,"229":0.08504327147268677,"230":-0.017826887017829397,"231":0.07181044055232544,"232":0.08188685190480421,"233":0.014610232609412814,"234":0.06222330351072783,"235":0.1225054312261421,"236":-0.02504400865725439,"237":-0.06317687140272603,"238":0.1832925295119934,"239":-0.021441707281036736,"240":0.049898455916358185,"241":-0.38271389135346384,"242":-0.09376940532891141,"243":-0.08957085703603643,"244":-0.05041353510075898,"245":0.05409893765683377,"246":0.05413825678154134,"247":-0.02891334466674351,"248":-0.40817746870527366,"249":-0.11216517052806031,"250":-0.06536705647101675,"251":-0.0650362943695971,"252":-0.06592379824230318,"253":-0.050412833717305844,"254":-0.10710406407556433,"255":-0.23159222850379987,"256":-0.2420082564937135,"257":-0.12228107778443907,"258":-0.011881514270161328,"259":0.008494729798161188,"260":0.05533894292309886,"261":-0.14112277492400288,"262":0.05618443703472049,"263":-0.10701011297191093,"264":-0.12471173388937608,"265":0.11488919434324266,"266":-0.04231011925207084,"267":0.008797528471840187,"268":-0.04805143098016435,"269":0.14557149698732658,"270":-0.185583997117641,"271":-0.020422449824530557,"272":-0.06869611284090577,"273":-0.0136076506838579,"274":-0.0011875376312673613,"275":0.11371729988503539,"276":-0.02024692604144431,"277":-0.10966478086310123,"278":-0.03321670275626083,"279":-0.03392467395932532,"280":0.0172861946021186,"281":-0.01893711405175272,"282":-0.16358288289952574,"283":-0.1779882636041083,"284":-0.11785106671727777,"285":0.03881627248938319,"286":-0.023764000984970713,"287":-0.003357980569416934,"288":0.09309048665490825,"289":-0.15547469136911185,"290":-0.05839195747634685,"291":-0.171847574706869,"292":0.0860361625433932,"293":-0.06842195159602085,"294":-0.10981820890529498,"295":-0.05491347519273461,"296":-0.04948732618216227,"297":-0.12774708159820747,"298":-0.17098043487931158,"299":-0.0422751881311544,"300":-0.07790554424790559,"301":-0.029080737272098936,"302":0.009315960653493948,"303":0.0004966383010209168,"304":-0.0639147928170433,"305":-0.03598403355196846,"306":-0.00010591875980797932,"307":0.045205788812635636}},{"sx":1,"sy":1,"depth":308,"w":{"0":0.08570512914129003,"1":-0.032798282919576906,"2":0.04160526310434884,"3":-0.08577531220832425,"4":-0.1619941513344197,"5":0.0910878120566597,"6":-0.07160663706463519,"7":0.001258143088797528,"8":0.03374961512779201,"9":-0.06643925613253487,"10":-0.17996513873919323,"11":-0.1248705134750901,"12":-0.0278341786298066,"13":-0.06510148596624732,"14":0.044903326842779145,"15":0.08915667702524481,"16":0.007352727876527404,"17":0.022387472334230635,"18":0.014003723025240417,"19":-0.03131052917476111,"20":-0.016332580691209814,"21":-0.09229503123857329,"22":0.06560260567314148,"23":-0.01845229776146468,"24":-0.11478276051854311,"25":-0.022728488794059795,"26":0.011198642426915626,"27":0.08913133725706326,"28":0.0029480327284071,"29":-0.04802370385961772,"30":0.05680070641887459,"31":-0.03166830802271469,"32":0.06181867509759919,"33":-0.020745656251109353,"34":-0.0838682703773635,"35":0.15525825867320864,"36":0.041237296534584134,"37":0.02933573981166607,"38":-0.08542194025065915,"39":0.046300743743689254,"40":-0.11407282849031003,"41":0.05372167613745079,"42":0.02511093685990481,"43":0.050099034354319054,"44":0.0887706206061642,"45":-0.05428874184012632,"46":0.026143969987771284,"47":-0.016059062334952173,"48":-0.00906896215519091,"49":0.12133218281444981,"50":-0.04152645936585651,"51":0.10163963980985527,"52":-0.04894764267882816,"53":-0.021916508250363932,"54":-0.04198103787518369,"55":-0.07295413272488986,"56":0.09501018790602168,"57":0.054880105847141286,"58":0.042277429414564076,"59":-0.1252017793039014,"60":-0.06297385206628701,"61":-0.04882390455961094,"62":0.027232184591830695,"63":0.024648212575729175,"64":-0.027995171620035696,"65":0.03587945484280705,"66":-0.034772652138850856,"67":-0.06101598647144113,"68":-0.1273837030031093,"69":0.12194425038558489,"70":0.10569746426016069,"71":-0.0022062026020369203,"72":0.014214707366601537,"73":0.026856901866490607,"74":0.0009184404069173341,"75":-0.10309326884179415,"76":-0.06554542623222626,"77":0.06177055466127162,"78":0.0010376109208038453,"79":-0.025754639614173,"80":0.053986757479342624,"81":0.022833147021149584,"82":-0.10568625703659867,"83":0.02350562253575135,"84":-0.06033849694154554,"85":-0.031102694862083845,"86":0.07089342174413234,"87":0.13423232623904066,"88":0.11846400466298578,"89":-0.1996953781314351,"90":-0.016929177024250116,"91":0.011454295506705832,"92":0.009052691079796204,"93":-0.027776535885986633,"94":0.07796083521598073,"95":-0.04744090449542424,"96":-0.09091928423605639,"97":-0.08255252445904675,"98":0.02130387963255621,"99":-0.0287961226916671,"100":0.054548312604486025,"101":0.19259164483991087,"102":0.1308475410143923,"103":-0.0859213626554136,"104":0.0010479175129914742,"105":-0.010007585105976753,"106":-0.056819064080166924,"107":0.02432899758720533,"108":0.2858814498608186,"109":0.020404452150276472,"110":0.0003115895296535821,"111":-0.027432971314112483,"112":0.06036113624772384,"113":-0.094750278104574,"114":-0.11123969206727588,"115":0.12782842912785983,"116":0.014139541170277494,"117":-0.09229480139404128,"118":0.04929155455508503,"119":0.054348891823844815,"120":-0.024475530608603184,"121":0.11397399920312169,"122":0.367417182603227,"123":0.045091769285811475,"124":0.06370508329091402,"125":0.19190771019224032,"126":0.03335597178015122,"127":0.01628735386159687,"128":-0.05356108116526818,"129":0.4154657483133307,"130":0.015890955015194278,"131":0.029892206390932097,"132":0.07716195938220538,"133":-0.060298100366428534,"134":-0.10435422784196316,"135":0.0258532457074184,"136":0.3367695196483222,"137":-0.0980467021983516,"138":-0.07028997664533194,"139":0.14053654311717442,"140":-0.11150344156126274,"141":0.025645893469829473,"142":0.06713517896518295,"143":0.6486011301102378,"144":-0.11138710368468006,"145":-0.06994806980359654,"146":0.009168913973548133,"147":-0.1373653128473246,"148":0.042750487774301335,"149":0.030960401947393152,"150":0.40620784765594414,"151":-0.13514670406272064,"152":-0.05167943416414493,"153":-0.0157344189524109,"154":-0.01921803087804825,"155":0.007075265179554265,"156":0.24724825654853194,"157":0.497867796364421,"158":-0.07582611114751428,"159":-0.08076928820812229,"160":-0.07308580820832893,"161":-0.0800837304986621,"162":-0.008490285229906502,"163":-0.10114712836987007,"164":0.6556788114273179,"165":-0.2602475521041649,"166":-0.09962573308552009,"167":-0.025985911104048368,"168":-0.0067731452646307,"169":-0.0977031899110395,"170":-0.11025640225636126,"171":0.4999955567763686,"172":-0.19588797539016942,"173":-0.0017351227968558749,"174":0.1449901397618383,"175":-0.00007502354670355939,"176":-0.013900214556634106,"177":-0.145446402081438,"178":0.6307642407162648,"179":-0.05878125198130797,"180":-0.1292305372745255,"181":0.11903782840934106,"182":-0.12130705889479107,"183":0.021589220476000044,"184":-0.13947980139316693,"185":0.4625099036898858,"186":-0.21585268074268976,"187":-0.17400824041035792,"188":0.03177946580661563,"189":-0.05692902128144297,"190":0.02251958668433129,"191":0.0069489257189565175,"192":-0.12781142030507742,"193":-0.06382985622716325,"194":-0.11635039082584397,"195":-0.025510060763562374,"196":0.07323716335592392,"197":-0.1084424394812914,"198":-0.1910081808047802,"199":-0.10079827311048345,"200":-0.3060591633174416,"201":0.008593717311627997,"202":-0.043492068223994096,"203":-0.039730859531069807,"204":-0.03599137386743272,"205":-0.2036179301454502,"206":-0.2260570470157481,"207":-0.23110729687102954,"208":-0.0036446658912493066,"209":-0.036685400238012394,"210":0.06840263678230625,"211":-0.1841093580835662,"212":-0.27266116690493525,"213":0.09450665338398043,"214":-0.20818471149775208,"215":0.030302826744384753,"216":0.02291142640009982,"217":0.08835681385831844,"218":-0.05480567474861305,"219":-0.16466647880508706,"220":0.0821050495563027,"221":-0.10045952310569244,"222":0.10068217290492394,"223":0.05051090385886399,"224":0.01817564098704794,"225":-0.010107432130117104,"226":-0.1466453826100256,"227":0.016867534747742323,"228":-0.04009766266630146,"229":0.013842438274781115,"230":0.07799433805432317,"231":-0.15165540808380695,"232":-0.055970286896745026,"233":-0.12709320151481054,"234":0.13602510892176234,"235":-0.0882426144420127,"236":0.05291544210639069,"237":0.037376079798679386,"238":-0.0573825061848116,"239":-0.07306148077107358,"240":-0.10169001776777016,"241":-0.21855926888897723,"242":-0.14002443061986644,"243":0.16231534350318053,"244":-0.027897786403876728,"245":0.10603932742867794,"246":-0.06949927684514437,"247":-0.0576506852786765,"248":-0.17457414345748692,"249":-0.11096485710111481,"250":0.1702040860217084,"251":-0.03825680949143288,"252":0.050634100261580536,"253":-0.03578281933665071,"254":0.1695132524219647,"255":-0.1642967117113505,"256":-0.08677566272644881,"257":0.20794096840340887,"258":-0.07782831195630857,"259":0.18353669029076466,"260":-0.07887511905406086,"261":0.01822167528800132,"262":0.061699810680687944,"263":-0.0976904667239996,"264":0.09037526156831402,"265":0.00816844246228307,"266":0.05105027063884593,"267":-0.05831653462873378,"268":-0.006324320319836565,"269":0.134416853450071,"270":0.03755381833849842,"271":0.14018408010409658,"272":-0.025467710322334185,"273":-0.08610902229347978,"274":-0.004549204922495705,"275":-0.11219608044326912,"276":0.06940964635525303,"277":0.06780084636030025,"278":0.07222040868862196,"279":-0.04831621873930607,"280":-0.010980791627138588,"281":0.03572539402212466,"282":0.06680454170662484,"283":0.0544632115769161,"284":0.016545684505958357,"285":-0.04656739558030406,"286":-0.0006167318674884488,"287":-0.09739248021071242,"288":0.017132173685051134,"289":0.0028065316614132208,"290":0.055303219867406626,"291":0.2295362550310699,"292":-0.04527202112772971,"293":0.1003100649112892,"294":-0.013621044756068021,"295":0.04572960383080358,"296":-0.05076251855686113,"297":-0.1219962368693929,"298":-0.049431969452227525,"299":0.02079287172522288,"300":-0.07741167445524785,"301":-0.0038217307682559035,"302":0.13208349169755731,"303":-0.10631297108307834,"304":-0.058016742037215616,"305":0.07427852963593327,"306":0.07647528390352962,"307":0.05215689429349025}},{"sx":1,"sy":1,"depth":308,"w":{"0":-0.014477839333151058,"1":-0.003969992855279309,"2":-0.0831709771826158,"3":0.013464285786701039,"4":0.004415940420591225,"5":-0.019118327580875758,"6":0.06722003107896705,"7":0.049344967296186204,"8":-0.07784790262449368,"9":0.000291787153220126,"10":-0.012712632606578695,"11":-0.08908171681329939,"12":-0.02724233761798185,"13":-0.025332944952004242,"14":-0.017567621352715456,"15":0.014670916104885454,"16":0.0323392599729633,"17":-0.12564974896671915,"18":-0.0716739965571909,"19":-0.030137698859449467,"20":-0.04467290306912727,"21":0.030730590517167464,"22":0.02582180633279156,"23":0.009426680142274909,"24":-0.05871571941618939,"25":0.05993654788135697,"26":-0.004822426635896716,"27":-0.056452106684094276,"28":0.07632044857289622,"29":0.026183642087644968,"30":0.026420593529902916,"31":-0.02874446396994866,"32":0.10028977956909521,"33":0.03692903941573214,"34":0.053109872836245575,"35":0.09950093715518572,"36":-0.06650696422647287,"37":0.029521608767612287,"38":0.03596295784342239,"39":0.011582641710406964,"40":-0.0022060559262799743,"41":-0.07919654452386152,"42":0.08698539904392368,"43":-0.0007014372677364366,"44":-0.026118429952865046,"45":0.0016054966986395014,"46":0.042766628022958435,"47":0.07458216077917332,"48":-0.041000356928243414,"49":-0.0006880678338639932,"50":0.06408264235883561,"51":0.012204764147984857,"52":-0.054713686071781814,"53":-0.006493303602883188,"54":-0.03919187779397972,"55":0.06315768039475401,"56":0.05079963798182755,"57":0.12045597298257525,"58":0.03802994232964643,"59":-0.00335548905520977,"60":0.1709592564912805,"61":-0.13023950873278517,"62":0.0857655356475457,"63":-0.005627939782462241,"64":-0.05849826218817884,"65":-0.08181937803684951,"66":0.08346011930618084,"67":0.058886012258031695,"68":0.02146546408482746,"69":-0.02632311785770537,"70":-0.05165551335758824,"71":0.0360164402052628,"72":0.05451101431390609,"73":-0.028487732972321586,"74":0.09509038818203581,"75":0.0013338155650946732,"76":-0.024463796362134065,"77":0.020261902799089952,"78":-0.05838303444776153,"79":-0.010691747976173824,"80":0.05421143518766555,"81":0.10226915989845213,"82":0.07685505823694015,"83":0.014302515709522628,"84":0.08792059144584612,"85":0.010147941586141964,"86":-0.0676972831800972,"87":0.03466701628457845,"88":0.04533125139560945,"89":0.031111026489626638,"90":-0.029646972775922605,"91":0.06891319717473694,"92":-0.006785437221398195,"93":0.04987328684319671,"94":-0.08791385281648087,"95":-0.041729793850740736,"96":-0.0796911931370365,"97":0.010015467904725581,"98":-0.00517307136614813,"99":0.09912940295775594,"100":0.006035865051482106,"101":0.0447355400344331,"102":0.07545928177717744,"103":0.037322331284412084,"104":0.011266808884001391,"105":0.05934230826941188,"106":0.049887211601822065,"107":0.01943211511008323,"108":0.1007137201364193,"109":0.07125055581939549,"110":0.09742862766707254,"111":0.055662199528331964,"112":-0.022121463850011392,"113":-0.0948919687997735,"114":-0.001541474887438333,"115":0.053743205663594154,"116":0.018966803470494228,"117":0.008078913652225182,"118":0.009482092560939404,"119":0.003955430026466914,"120":-0.08416435248828202,"121":0.03215986422473893,"122":-0.01814396938448743,"123":0.035995782634464256,"124":-0.0005325203300756217,"125":0.08868659088548857,"126":0.06575948891607933,"127":-0.08921422327782447,"128":-0.0010818488784189156,"129":0.007661090840157244,"130":0.011748291583535471,"131":0.034441171408322695,"132":0.0985210373068451,"133":-0.04610511729216086,"134":0.0034323773889677585,"135":-0.012950586627983481,"136":0.03170441260902237,"137":0.01610850599550298,"138":0.1081976984557641,"139":0.08471954963678886,"140":-0.08453897096857285,"141":0.037798347437616925,"142":0.046161578409667794,"143":-0.03028021604006886,"144":-0.018333522499143527,"145":0.013632452569229342,"146":0.05377760099320593,"147":-0.043669583035465157,"148":-0.027975240034467934,"149":-0.061006662453814677,"150":0.01989572778563252,"151":0.014896706743923821,"152":0.16985989770529153,"153":0.0741062032838884,"154":-0.10003827557708611,"155":-0.048838193668271815,"156":0.013816351201510476,"157":0.03390593714790379,"158":0.07582721260782066,"159":0.12237966374417808,"160":-0.0772291403661167,"161":0.016391600638366748,"162":0.015726398445005372,"163":0.08624946721071756,"164":0.005477656001128151,"165":0.18506719387815387,"166":-0.08843739757712145,"167":-0.05262513869006795,"168":-0.034809849598488776,"169":-0.09173576184130784,"170":0.06775595855026069,"171":0.05040685979222368,"172":0.28584580956075334,"173":-0.026189466725568582,"174":-0.0420974047475343,"175":0.012029010991391947,"176":-0.0530927462509489,"177":-0.033232141906536165,"178":-0.03218368159018391,"179":0.21968863915051598,"180":0.019186775955724447,"181":0.03462439691717479,"182":-0.05997333685163032,"183":0.08258857070717222,"184":-0.09903872855744011,"185":0.07860756564864706,"186":0.006526311328194443,"187":0.02874791218693481,"188":0.016042339923038863,"189":-0.07716657111804599,"190":-0.02466783517672363,"191":-0.030002970111681786,"192":-0.07517165748709338,"193":0.13093704400774808,"194":0.05122284544388838,"195":-0.0718360414018304,"196":-0.04838227219074171,"197":-0.050622788324394374,"198":-0.103270645515137,"199":-0.034172746750112816,"200":0.08998304430155492,"201":-0.01573390566459877,"202":0.018884791430061623,"203":-0.02674418029650805,"204":0.0013915143053716435,"205":-0.13352659394486738,"206":-0.014777034233443516,"207":0.18200347041517584,"208":-0.09725493393279876,"209":-0.10343830332887405,"210":-0.07162605361275101,"211":-0.047533498699755705,"212":-0.12003046994154364,"213":0.11436136923896616,"214":0.2474947807339779,"215":0.06372787952230563,"216":-0.012289837859019213,"217":0.02520227176433745,"218":0.04720324391337017,"219":-0.08192592609682449,"220":-0.01559525688743348,"221":0.13222666740380706,"222":-0.007866728196837109,"223":-0.040543804147930754,"224":-0.02817071451134308,"225":-0.018910746025583413,"226":0.050590474596655596,"227":0.11096166880948292,"228":0.13942991254001108,"229":0.009730695097497273,"230":0.007730272005319597,"231":-0.02406148674460705,"232":-0.08106348634125243,"233":-0.023911329880326994,"234":0.19793322506539124,"235":0.23187714487546612,"236":-0.029011710306377215,"237":-0.04468664570085899,"238":-0.05726355982437312,"239":0.055020136643382844,"240":0.01811429692785626,"241":-0.17382053251299778,"242":0.10592081067485778,"243":0.07826983296061638,"244":0.004036447035552117,"245":-0.07541832613208263,"246":0.078885919723906,"247":-0.08764104046524863,"248":-0.12650925840523072,"249":0.03469827762929063,"250":0.008415832337563923,"251":-0.12312318131290961,"252":0.005335380755501945,"253":0.028636860868919273,"254":-0.05210829503355266,"255":-0.11655955582345447,"256":0.12501022931633335,"257":0.11267839352092364,"258":0.010480374974435077,"259":0.03568999253301548,"260":-0.02836496357577816,"261":0.07918627551296419,"262":-0.025449738550198196,"263":-0.027797787650115487,"264":0.09349949138967595,"265":-0.0030730232595769977,"266":0.06400922522419025,"267":-0.004727644716068573,"268":0.014273954891306884,"269":-0.04380584902618119,"270":0.04428430658766861,"271":-0.01730724343047004,"272":-0.07725929974164132,"273":-0.0054064917383960034,"274":0.040833876523172816,"275":-0.041728859868491765,"276":-0.01475037271030088,"277":-0.03611011897482327,"278":-0.0742394151148293,"279":0.047118478342585396,"280":0.058575056077113934,"281":0.03598836488136726,"282":0.08488447106460684,"283":0.04693285180490488,"284":0.10478224299090251,"285":0.020234122749950605,"286":0.00018301047030061898,"287":-0.029685230737287367,"288":0.018039988614466197,"289":0.031003150314336488,"290":-0.026186150430147274,"291":0.044345366830262314,"292":0.0065779639297785224,"293":-0.026708435175668083,"294":-0.08021089782829456,"295":-0.0746032525824633,"296":-0.05260566378514289,"297":-0.0555433609262785,"298":0.001084567885630507,"299":-0.042294531861249,"300":0.0392106035751122,"301":-0.06169504293364284,"302":0.018958745115074144,"303":-0.08661659888963107,"304":-0.04707690488041948,"305":-0.07380076453179484,"306":-0.10023491729737587,"307":-0.04159338267513532}},{"sx":1,"sy":1,"depth":308,"w":{"0":-0.13380920018377873,"1":-0.09032846270956704,"2":-0.01639633178689122,"3":0.1334854888495978,"4":-0.003345102485465328,"5":0.05256443358287129,"6":-0.018729430514484925,"7":-0.00369571213404782,"8":-0.09330654517230094,"9":0.027289939478463792,"10":0.05524117672966679,"11":0.029880619466352783,"12":-0.037679850164503294,"13":0.037430664436363954,"14":0.11282914198973,"15":0.025052960648298244,"16":-0.025882199762755288,"17":0.024454128356323518,"18":-0.039466824410644905,"19":-0.03237467285278954,"20":-0.0204852373459879,"21":0.0626063240224841,"22":-0.029651176306329036,"23":-0.08492089955378522,"24":0.031421570249875304,"25":-0.056410106217593306,"26":-0.011702080740700787,"27":0.07242350312128615,"28":0.012833363242128568,"29":0.024923794294479686,"30":-0.009281380969931339,"31":-0.003388373852875889,"32":0.023142553227875565,"33":-0.01506696239371599,"34":-0.04488339812385984,"35":0.055840961688486526,"36":0.030523253049484108,"37":-0.013608889005001236,"38":0.09881114943468108,"39":-0.10969525874576909,"40":-0.21858692609545263,"41":0.011624480156861005,"42":-0.04018127140780248,"43":-0.10883190864776328,"44":-0.07794428744655882,"45":0.03958053997475447,"46":-0.06745008672855776,"47":-0.08584231861117682,"48":-0.004412241655834974,"49":-0.05750722943011271,"50":-0.08013540640348268,"51":-0.06455100739527735,"52":0.11533941499408325,"53":-0.11058729996531655,"54":-0.0052431559224130056,"55":0.005774134200249445,"56":0.00011183988951955223,"57":-0.06716325503579469,"58":-0.024014000547047706,"59":0.13097924715982456,"60":-0.07796067798692119,"61":-0.04150227242709879,"62":-0.029395727248563555,"63":0.048315809246479054,"64":-0.045628168347990584,"65":-0.12247621617199396,"66":0.24363638728315024,"67":-0.05401691952963025,"68":-0.013800857148806843,"69":-0.06815954032846785,"70":0.0063861327792006685,"71":-0.10949873243727365,"72":-0.167854749587678,"73":0.24732406885001249,"74":-0.04455884198431104,"75":-0.056769644583619924,"76":0.033217593510944284,"77":-0.056188349176967134,"78":-0.02814128840774036,"79":-0.09803390837913549,"80":0.39778591161317584,"81":-0.08817908090879134,"82":-0.012877105409956088,"83":-0.023019454964349817,"84":0.005571718132334077,"85":-0.04663967403555115,"86":-0.06752730131392208,"87":0.37510069388095757,"88":-0.06287343303713337,"89":-0.041597750688941275,"90":0.024041817415572413,"91":0.10267573334215388,"92":0.007787448004168685,"93":-0.12321707808667773,"94":0.35911567024624763,"95":0.0551747114968031,"96":-0.00024527161869554757,"97":-0.05607870648703514,"98":0.013372451522322346,"99":-0.09132727665975456,"100":-0.11180902122412532,"101":0.4811465243974623,"102":-0.11110093611721708,"103":-0.12389665716680329,"104":0.009558974328120931,"105":-0.016372015095799622,"106":-0.050126722989181485,"107":-0.16650825051872453,"108":0.4427436498666858,"109":-0.1595907318785825,"110":-0.08927819443543407,"111":-0.09130661127096946,"112":-0.022311775496094657,"113":0.0025449502562434356,"114":-0.09703865586939169,"115":0.4152532496198476,"116":-0.09444226983701787,"117":-0.10537241750963565,"118":0.024293738343984076,"119":0.04306357159320976,"120":0.05430602362069664,"121":-0.17937574375179996,"122":0.4621163787757831,"123":-0.11591236397677124,"124":-0.007784735591304046,"125":0.047608359743605895,"126":-0.019146213968231407,"127":-0.004227719203926995,"128":-0.14091995855613584,"129":0.3327759368201102,"130":-0.14528889430602246,"131":0.07096802013632508,"132":0.007019468433939726,"133":-0.009053642098228851,"134":0.00787776961087479,"135":-0.14069380883130692,"136":0.5689321294158971,"137":-0.09053481024595908,"138":-0.11798375057522414,"139":-0.03545516977381962,"140":0.09348334281350976,"141":-0.06358345383508442,"142":-0.25692186247003485,"143":0.4840846592857156,"144":-0.1274539598018913,"145":-0.015475205651611146,"146":0.05991953949280671,"147":-0.09111949594702028,"148":0.07344836794964231,"149":-0.1736494499025067,"150":0.3710823554040728,"151":-0.10959946332424199,"152":-0.048678517427291956,"153":-0.022664961125699122,"154":-0.006489098391497049,"155":0.006713364491248612,"156":-0.24004890012214997,"157":0.20667975408578404,"158":-0.19067803136732647,"159":0.012479119686154757,"160":0.12402898030127267,"161":-0.09144289724050711,"162":-0.006906301147166111,"163":-0.15388489139723083,"164":0.4351578731042505,"165":-0.15145347604146556,"166":0.05300354119803299,"167":0.025058334833349915,"168":-0.06391026912490137,"169":0.0033770692534918754,"170":-0.19911602510117365,"171":0.29460859112899096,"172":-0.1649819486785764,"173":0.03901647669285513,"174":0.039191900028931796,"175":-0.044620776432370036,"176":-0.06457516977943327,"177":-0.12773157906195295,"178":0.24207519416010434,"179":-0.011294653754091319,"180":0.07801927888025544,"181":-0.07180999544811487,"182":0.02114599093054687,"183":0.04137667785968485,"184":-0.05497367080112656,"185":0.46078384770108055,"186":-0.019935555157380436,"187":0.00708351994055127,"188":-0.015502856975824106,"189":0.04852082842581882,"190":0.053115263975577386,"191":-0.15886439068283162,"192":0.07673471996702678,"193":-0.06278511605574107,"194":-0.020476849514098335,"195":-0.022187288548936233,"196":0.024732603136735254,"197":0.05160229958587956,"198":-0.09696029130905189,"199":-0.09207585593495099,"200":-0.07624697684700787,"201":0.04828134457236524,"202":0.016358997120577454,"203":-0.023000002676831832,"204":0.06943721629824907,"205":-0.07806360790736164,"206":-0.2473995667378481,"207":0.056682344560938965,"208":0.1765459373409184,"209":-0.05627474923010862,"210":-0.023021492957479225,"211":-0.008201321337810768,"212":0.07943712474692032,"213":0.22067549493153543,"214":0.016044978669596865,"215":0.1200562746264437,"216":0.012915082401967279,"217":-0.04920102598402737,"218":0.07990729549730773,"219":0.01974275512290484,"220":0.12377599449660638,"221":0.05159739045441067,"222":-0.05892460260635605,"223":-0.02473865147258757,"224":0.002426425344400792,"225":0.013184769890121519,"226":0.11682385852595521,"227":0.13775094057801907,"228":0.09484122924857426,"229":0.027425490754073616,"230":0.02315733305172893,"231":0.04596785653901098,"232":-0.0176923034040642,"233":-0.05575560838425248,"234":0.1544478792420239,"235":0.005622796061891733,"236":-0.009876752271569594,"237":-0.008138959860006213,"238":0.0032204521496771625,"239":0.11713758865438627,"240":-0.07174117736080596,"241":-0.3334615757152163,"242":0.10731945076879879,"243":-0.006719103311692606,"244":-0.023107349653746955,"245":0.04766656383679384,"246":-0.05829192094696233,"247":-0.049720512428260415,"248":-0.40875429369518085,"249":0.044749607366201614,"250":0.006980614004260654,"251":-0.06288629071659066,"252":-0.0461372904383858,"253":0.10585550272036987,"254":0.03820392436227751,"255":-0.3832864046864968,"256":0.035488111534410456,"257":0.033681963522864365,"258":0.017461976418798035,"259":-0.051583119691876664,"260":0.04075633213663647,"261":0.016658548864717387,"262":0.12535668330171182,"263":0.04801518924149056,"264":-0.041416507954835695,"265":-0.08575620299707128,"266":0.015530335915955248,"267":0.043449572643484036,"268":-0.008218051249088523,"269":-0.009002456270042612,"270":0.006133388576621592,"271":0.006012279026531933,"272":-0.0372281819187193,"273":0.03501580371093405,"274":-0.012163433407503303,"275":0.030415400889916372,"276":-0.07320157993277059,"277":-0.07636339105802725,"278":0.10110575813704396,"279":-0.040502134675349216,"280":0.03372116546142356,"281":0.1017171334902771,"282":-0.0475350013202802,"283":-0.06387235015457551,"284":0.006741371037163699,"285":0.05941961724381382,"286":0.0757580361657469,"287":-0.029077362749318023,"288":0.042448032962985126,"289":-0.0165307890221086,"290":-0.05720562174866524,"291":-0.09819334976424107,"292":0.06851664254281965,"293":-0.020350498684351372,"294":0.03143603766533398,"295":-0.06356879532158012,"296":-0.06332807132213358,"297":-0.0030302654888228957,"298":-0.04841619971702243,"299":-0.004128982075947257,"300":0.01845424201270398,"301":0.038027475574848896,"302":0.02020114357661658,"303":-0.0026238293340307603,"304":-0.008363532839460452,"305":0.01115296155242917,"306":0.030909116270502746,"307":0.06160933040140393}},{"sx":1,"sy":1,"depth":308,"w":{"0":0.002001885940231674,"1":-0.1599442312977742,"2":-0.029289300078707014,"3":-0.11056323443513998,"4":-0.01859614977522167,"5":0.012287088254984384,"6":-0.019629443069679675,"7":0.07241024666879732,"8":-0.11024798790122545,"9":-0.055606846977243087,"10":-0.0441774132591462,"11":0.0059439904534203305,"12":-0.007966108252204049,"13":0.05420489314574656,"14":0.09771233185237697,"15":-0.013746548374942392,"16":0.005217440097719695,"17":-0.07366603642526741,"18":-0.015171152834633338,"19":-0.09167701804259437,"20":-0.012557435462437004,"21":0.12340085680491263,"22":-0.04034527658729436,"23":-0.008733986843390355,"24":-0.035708445093520856,"25":-0.02653735923747788,"26":-0.018466863450280015,"27":0.0478567676121432,"28":0.0377477416306543,"29":-0.028490552786022652,"30":0.02087653402870271,"31":0.0894173958942206,"32":0.003579270273535942,"33":-0.07134535863360063,"34":0.048182185930910636,"35":0.04226106677992273,"36":0.017196125741855257,"37":0.03840299272445572,"38":0.022278939648949062,"39":0.0859162246477711,"40":-0.030064424059315496,"41":0.060958041682706327,"42":0.01476312452461323,"43":0.03215875095166259,"44":-0.050412879644466384,"45":-0.03300623108951505,"46":0.002186255765142266,"47":-0.17255241089996354,"48":0.0026377746560443107,"49":-0.15621909722039878,"50":-0.08909802243232377,"51":0.03600495440393611,"52":0.01623757459245941,"53":-0.03742604614997893,"54":-0.013648197585630259,"55":0.1315088719918458,"56":-0.0936299352027527,"57":0.11640302622719638,"58":0.0032899866480543306,"59":-0.09759479550811843,"60":-0.02076476254149663,"61":-0.05056735672318731,"62":0.11054825310127146,"63":-0.08806122944238515,"64":0.0062302768743395945,"65":0.10379552871316897,"66":-0.07264755153818298,"67":0.022107243411368105,"68":-0.10738655417504285,"69":0.04114084754921744,"70":-0.0876600761364403,"71":0.06137599015681213,"72":0.023953138696280553,"73":-0.08392946565521173,"74":0.011046578272433024,"75":-0.11287219043606328,"76":0.0016560630485593954,"77":0.1063294035564223,"78":0.07649451582762729,"79":-0.014917552234045112,"80":0.015172795631635556,"81":-0.1046705357011176,"82":-0.07932915708173287,"83":0.06233932344572155,"84":-0.07945506089549005,"85":0.09079020317595152,"86":0.08608299968205041,"87":-0.12358949656204793,"88":-0.06496113910631487,"89":-0.015135898907068037,"90":-0.03730036443334741,"91":-0.02373684328161743,"92":0.042859610037969065,"93":0.04074196672947772,"94":0.012944772604464638,"95":-0.10260066121437696,"96":-0.052021547415577456,"97":0.005534584570228786,"98":-0.0488717754914742,"99":-0.0019061974431699691,"100":0.12267854764473571,"101":-0.050544786666936736,"102":-0.19893883420718986,"103":-0.04981988944653924,"104":-0.04444278012700078,"105":-0.193782611822082,"106":-0.06691921306457851,"107":0.10535726073008224,"108":0.12116566843615129,"109":-0.1772881923919248,"110":-0.09233552043215275,"111":-0.04920826359752607,"112":-0.0983866976565871,"113":0.14052210897062625,"114":0.13520043360078093,"115":-0.0016182987575428284,"116":-0.04253141981446656,"117":-0.050239262759245215,"118":-0.055134594405760406,"119":-0.10224728134012515,"120":-0.050087472158511066,"121":0.37418404406010275,"122":0.017881581667222552,"123":-0.0721325750633,"124":0.03142708339346637,"125":0.050084220901251586,"126":0.10701588207126268,"127":0.02937961234832697,"128":0.39766147052514644,"129":0.2032079803053029,"130":-0.17795422000994293,"131":0.04824927722728417,"132":-0.005918460030567593,"133":0.15171019869691443,"134":0.1532459334295998,"135":0.4744483707022004,"136":-0.04217108096375117,"137":-0.1846902553468196,"138":0.03605173823837618,"139":-0.026958625630025664,"140":-0.11134751696068425,"141":0.04636003419374938,"142":0.3018789711573709,"143":0.12113964268575671,"144":-0.17918383769394636,"145":-0.022111740093207596,"146":-0.009884741950163816,"147":-0.016199675520241857,"148":0.06620854449678205,"149":0.5407757270935537,"150":-0.20694849917237543,"151":-0.21159835731399515,"152":-0.07420877188667453,"153":-0.01764523861890328,"154":-0.09705385628691071,"155":0.14049093047245062,"156":0.4455671469146713,"157":-0.03545435732594129,"158":-0.22843472931902378,"159":0.02382305054282315,"160":-0.06258757245795399,"161":-0.0933615372166951,"162":0.10553318009891531,"163":0.47888069175053266,"164":0.12439773982360883,"165":-0.24668538667030923,"166":-0.008826549138074076,"167":0.11846163130247621,"168":-0.043169830402964085,"169":-0.005507515019623358,"170":0.5032548947640317,"171":0.07674687698759533,"172":-0.27523823402996894,"173":-0.04279857430002619,"174":-0.03770666243267638,"175":-0.07146296092110631,"176":0.04882318122233104,"177":0.6438143965903231,"178":0.15999069518652123,"179":-0.3083023326283456,"180":-0.098702919399805,"181":0.08667851746287694,"182":-0.037906454969830854,"183":0.07165812528338236,"184":0.5088625099178635,"185":0.03005803361919106,"186":-0.25419136908278567,"187":0.009347425404173047,"188":-0.03357334275806406,"189":0.06535352174250841,"190":0.03551679758694059,"191":0.5372121838877206,"192":-0.4514837960768526,"193":-0.10709599939093532,"194":-0.007864823246845254,"195":-0.0005645047366316753,"196":0.10384734485726146,"197":0.1154961934631607,"198":0.8043344604692679,"199":-0.4592371191515148,"200":-0.26402339671458885,"201":-0.05215806244646489,"202":-0.014374412856464765,"203":0.04191785750997302,"204":-0.04371248227746084,"205":0.7047759128866161,"206":-0.4964542149733282,"207":-0.33520846799215315,"208":0.07498329537958963,"209":-0.06690623317995778,"210":-0.03818402172205129,"211":-0.0035343857123058806,"212":0.5414878298692707,"213":0.06497051952040304,"214":-0.2933347581053507,"215":0.03363475651264342,"216":0.06582557504672583,"217":0.061771193385970015,"218":-0.10317874299307847,"219":0.4413097388876489,"220":-0.03349057904652167,"221":-0.029189813389956687,"222":0.12243017311588392,"223":0.02990279118249042,"224":0.047072892594811414,"225":-0.031971058758943835,"226":0.4304207976529462,"227":-0.02802678069767642,"228":-0.11453022246784596,"229":0.007185471382992487,"230":-0.06998020809795454,"231":0.015613527296599386,"232":0.0033177678956146516,"233":0.6178339450532746,"234":0.10724125747583764,"235":0.015974676259608543,"236":0.1758159049993765,"237":-0.08892478458803586,"238":0.09897432456236327,"239":-0.012760568757158981,"240":0.22886517140323231,"241":-0.5036886696864301,"242":0.03577593171075728,"243":0.041342881186752944,"244":0.1142369484410548,"245":0.08197147231858393,"246":-0.1238019389057948,"247":-0.03334947540485307,"248":-0.46466678442945336,"249":0.1139254063743018,"250":0.05098575669427965,"251":-0.023408819920981115,"252":-0.03665991191832884,"253":-0.015823286855443663,"254":-0.13551441079516627,"255":-0.4839982674768007,"256":0.0139497218664607,"257":0.0867666079904177,"258":-0.01817353208758596,"259":0.005045691999198597,"260":-0.10452140989867284,"261":-0.3430214999183167,"262":-0.26772817350292144,"263":0.12215667541982902,"264":0.03447933121037408,"265":-0.07640419299208692,"266":0.0011329059715911131,"267":0.0038252520944129106,"268":-0.08314597187443007,"269":-0.21108573940845266,"270":-0.028257690201753637,"271":0.013317509774188486,"272":-0.053378781680451536,"273":0.022545086980740522,"274":-0.0868208771200106,"275":-0.0791619077558024,"276":-0.1524217568270294,"277":-0.0018041259887422803,"278":0.09933475185031972,"279":-0.08645971988119922,"280":0.05122295267806269,"281":-0.058360573186657,"282":-0.1192909958001077,"283":-0.04988650517729927,"284":-0.030398131875295685,"285":0.05296931003966262,"286":-0.11741614860664547,"287":0.03259055498726545,"288":-0.059467835587136635,"289":-0.22342058967756284,"290":0.005773393065708565,"291":0.15985909424841094,"292":0.1302134277074135,"293":-0.019059147818254525,"294":-0.011745584032399742,"295":0.036188991414743486,"296":-0.017258287207517837,"297":-0.01658477611300249,"298":-0.011984910665241405,"299":-0.027078512678238385,"300":-0.09696960612314935,"301":-0.03503844247929623,"302":-0.037535834396223766,"303":0.15627798860047595,"304":-0.0733068025855931,"305":0.0846504965042669,"306":0.026675510612276757,"307":0.02126341716071121}},{"sx":1,"sy":1,"depth":308,"w":{"0":-0.0656226218591154,"1":0.09732991189226112,"2":0.028365046965018157,"3":-0.015686146506536994,"4":-0.035522065818803614,"5":-0.01764439492132294,"6":0.13362930010271404,"7":0.04962994848617437,"8":-0.017491536606592733,"9":0.10689020435356252,"10":0.004328405119832391,"11":0.045580250518371654,"12":-0.00515127252462327,"13":-0.036833518875151516,"14":-0.050384733882852945,"15":-0.11299779775235753,"16":-0.03769038406001792,"17":0.05276451643079731,"18":-0.04900195590871233,"19":-0.07344416348721199,"20":-0.09106104073632242,"21":-0.00042219278164858836,"22":-0.08840021364226146,"23":0.0073658541453675026,"24":-0.019013822395008304,"25":-0.07923740406408095,"26":0.015166294174613404,"27":-0.10470716569622444,"28":-0.009444486005370482,"29":-0.00990871928855182,"30":-0.05824073337036483,"31":0.07967417494158499,"32":-0.09457716093554683,"33":-0.10738421518692436,"34":-0.09189261228504486,"35":-0.07959160983453,"36":-0.04474614267141416,"37":0.004785289246976055,"38":-0.021887177920889123,"39":-0.07543784615247956,"40":0.008739597706060363,"41":0.05990966027567342,"42":0.017612354769159042,"43":-0.07255785522103429,"44":0.03435045773131032,"45":-0.008913457847599254,"46":-0.06932013976236334,"47":-0.02035706412902384,"48":-0.05740979888974688,"49":0.00836243781608177,"50":-0.0337089281270981,"51":-0.011360154533395174,"52":-0.02646207136914553,"53":-0.04222294772696107,"54":-0.11077859482130457,"55":0.0853341602965982,"56":0.09474480215285415,"57":0.016326848575657443,"58":-0.09455529632058819,"59":0.14158361102445538,"60":-0.059560359357454816,"61":-0.00029180503521151644,"62":-0.021878570700039672,"63":0.044492468692143,"64":-0.005851922620471556,"65":-0.18216169221610068,"66":0.091894721326964,"67":-0.10097239513638748,"68":-0.04143559884203723,"69":0.005747972471344669,"70":0.04583150297733651,"71":0.08040115273172631,"72":-0.17331905345297277,"73":0.020095723900831728,"74":-0.07396773021062711,"75":-0.03253170965910254,"76":-0.04370767015563185,"77":0.039667753777301806,"78":0.035697212931811974,"79":-0.005471968501401758,"80":0.12060319171927793,"81":-0.06246507189230442,"82":-0.00912544984132157,"83":-0.027829591488105758,"84":-0.10410706681591611,"85":0.06026179091483038,"86":0.02861973074630226,"87":-0.04035137681799504,"88":0.10187825419449621,"89":-0.012475457211992497,"90":0.033585516917942836,"91":0.05665609374465324,"92":-0.05518342550416005,"93":-0.06302186936551511,"94":-0.04353504846804403,"95":-0.09733820884395579,"96":-0.0059790524654381606,"97":0.03205470047793823,"98":0.04689309682649956,"99":-0.03470517368697156,"100":-0.07168990314041401,"101":0.006404972945876211,"102":0.004363425612680179,"103":0.005572039950185212,"104":0.05933719456663981,"105":-0.04419586157415521,"106":0.04695681637530788,"107":0.0955878574956675,"108":-0.07119405793269783,"109":0.0441140907362569,"110":0.10267976085366368,"111":0.06668838335034487,"112":-0.12663072138196235,"113":0.08807000334754883,"114":-0.015683440351969485,"115":-0.1128167593617814,"116":0.01950065405047717,"117":0.03135672386019832,"118":0.0773201195692459,"119":0.05632615022609432,"120":0.12161430539075396,"121":-0.028568518408045758,"122":0.004407207864826354,"123":0.0950864292686407,"124":-0.035884222866036264,"125":0.04859809312338309,"126":0.03217157606079004,"127":0.02134849353099453,"128":-0.09749015357774951,"129":-0.20361351297304284,"130":0.11277007077431919,"131":0.10054345614180435,"132":0.02529325407499894,"133":0.011738867198540217,"134":0.05002719566532048,"135":-0.1007890183567633,"136":-0.18405147555831994,"137":0.1447923447389725,"138":0.019729407066562666,"139":0.03262840935461231,"140":0.08873963663758103,"141":0.12658394295548123,"142":0.02556539862695136,"143":-0.27309597182647216,"144":0.07928945579377257,"145":0.05441854456737285,"146":-0.028076435343800523,"147":0.039273253701129496,"148":0.07285595344834787,"149":0.004558528506042079,"150":-0.28670486665138173,"151":0.07965551270816794,"152":0.04763642774334595,"153":0.050852062490849365,"154":0.06263817567959235,"155":0.13925539456843708,"156":0.10582536399349828,"157":-0.37214536800574266,"158":-0.00024336533434121015,"159":-0.05042054933724384,"160":0.08959611847513603,"161":0.08188417369309531,"162":-0.01885107839000356,"163":-0.07609570764535754,"164":-0.5137974599802684,"165":0.1430707754423781,"166":0.1086219365752699,"167":0.08218202477106261,"168":-0.12838560425962772,"169":-0.058013967763776486,"170":-0.12078463914262863,"171":-0.7517059910216725,"172":0.23874243146423657,"173":-0.06744406910840196,"174":0.05917335352033284,"175":-0.09112475926536669,"176":-0.017094033792717366,"177":-0.08801904853903215,"178":-0.7031011165971361,"179":0.33565257625018335,"180":0.14587266946710073,"181":-0.03357947828312308,"182":0.07371593751400124,"183":0.03034424714117832,"184":-0.1167306943775425,"185":-0.5568125192165471,"186":0.364419805623632,"187":0.11193349618273611,"188":-0.08262777987444869,"189":0.09572906741324963,"190":-0.06996473520807611,"191":-0.08106343273919599,"192":-0.5052502603101006,"193":0.39803972079848365,"194":0.1408127120282985,"195":-0.04059552900024722,"196":0.06201985220925202,"197":-0.015480251992743565,"198":-0.061833987200996185,"199":-0.2816133415856684,"200":0.6424648870725775,"201":0.1636355022167831,"202":0.08503113539085592,"203":0.020038888548115287,"204":0.014307838180857563,"205":-0.08660662569881358,"206":-0.2781433180824353,"207":0.6361341271824937,"208":0.14244544283644003,"209":0.06025248911242453,"210":0.06418155340144445,"211":-0.16918500809387527,"212":-0.11172937774877102,"213":0.06334379113268915,"214":0.6475400101936045,"215":0.08299392307132337,"216":0.08554588135266117,"217":-0.07523017698075905,"218":-0.06634266236673747,"219":0.06484743106098195,"220":-0.06819939472655823,"221":0.5333875034557037,"222":-0.005138634069455213,"223":-0.0006855503845792964,"224":-0.07635535732086525,"225":-0.03244493836142334,"226":0.08907553581779207,"227":0.0765476811627946,"228":0.731451556538101,"229":0.04963255058587905,"230":0.03411158471694936,"231":-0.09282874602885263,"232":-0.04810816875656518,"233":0.08410277150219767,"234":-0.06284969490028872,"235":0.8125349399483371,"236":0.09586017885908218,"237":0.14012378674593592,"238":0.02081957358960384,"239":0.10466312495510728,"240":0.06221008483174224,"241":-0.30279099970564066,"242":0.4331080393743489,"243":0.05256384610781699,"244":0.00987102166266102,"245":-0.07623163648153951,"246":-0.005820029254918523,"247":0.040463424842017974,"248":-0.24921901067592991,"249":0.2336609907307909,"250":-0.04566847460818165,"251":0.050819395245946766,"252":-0.03433320494120384,"253":-0.05636726803065432,"254":-0.04138524784217004,"255":-0.3781283820659652,"256":0.011003637085288965,"257":0.00850266243632425,"258":0.02161173426307585,"259":-0.08584540663707997,"260":-0.03858151484575129,"261":0.10124088979098292,"262":-0.2309505105300923,"263":-0.19077109427045416,"264":0.02827565415505873,"265":-0.02971638992907079,"266":0.02372616456005951,"267":0.06135490604071495,"268":0.11198866315252093,"269":-0.2437276674242999,"270":0.09153415025678552,"271":-0.05562672643973409,"272":0.060042358363509955,"273":0.01891754753546276,"274":-0.06742000486473504,"275":0.048664061562863854,"276":-0.07929802213593276,"277":0.022415914545394777,"278":-0.11687699076124194,"279":-0.0157267484142917,"280":0.040178968103984976,"281":0.07189191710741538,"282":0.03576826824209716,"283":-0.09764941663353552,"284":0.005954882522626351,"285":-0.006619038893772623,"286":-0.0856810620636751,"287":0.05184580864644893,"288":0.00328477128326859,"289":-0.03021684917805023,"290":-0.16809836976901982,"291":-0.15778039394431134,"292":-0.018243175944893133,"293":-0.16444658007822444,"294":0.06625819372120292,"295":-0.03198374325248638,"296":-0.10746931800859029,"297":-0.01988752438771558,"298":-0.1142890098971347,"299":-0.006971023397406177,"300":-0.06967469695035354,"301":0.09791237690588835,"302":0.09117896288486402,"303":-0.09533023043454404,"304":-0.06837024706932814,"305":-0.021268564321223267,"306":-0.09666527440250589,"307":-0.07787905579754612}},{"sx":1,"sy":1,"depth":308,"w":{"0":0.009011440351921344,"1":-0.04698897752901722,"2":-0.05440724608745903,"3":0.08085387777300476,"4":-0.061678731779072814,"5":0.15301612558942654,"6":-0.0003469669040161193,"7":-0.003445596184343204,"8":-0.018884320757591635,"9":-0.030608470504651472,"10":-0.021691380431130728,"11":0.0922083005368146,"12":0.05665879094672132,"13":0.01801842572355446,"14":0.027731588338233516,"15":-0.0319220592496282,"16":0.04513370926386331,"17":-0.02217038314390399,"18":-0.01399980456519454,"19":0.053146651850423145,"20":0.08887334047245356,"21":-0.04604764530675719,"22":-0.005225255264648427,"23":0.04545979934781295,"24":0.003316207383958685,"25":-0.002339486778191196,"26":-0.0015429604170765169,"27":-0.07686241484581129,"28":-0.009881697520959383,"29":-0.046715849111553055,"30":-0.04852247522705917,"31":0.0014139196899981936,"32":-0.11399166889895783,"33":-0.05704347001402835,"34":-0.11260736988741643,"35":-0.09374040113827034,"36":-0.08369427065187438,"37":0.035258046546470856,"38":-0.12469066019035664,"39":-0.10084573955714474,"40":-0.038199869035771154,"41":-0.07978410240067707,"42":-0.047901311854480995,"43":-0.031243087650498914,"44":0.0490704935908291,"45":0.0016650970311441454,"46":0.02440993603089417,"47":-0.04475168670349319,"48":0.041881956040990244,"49":-0.08636190831072266,"50":-0.13660378281536373,"51":0.08044984680543696,"52":-0.113960537293895,"53":-0.028125691424263254,"54":-0.07911751422773639,"55":0.023120998487027256,"56":-0.07011625806663098,"57":-0.14767474415774037,"58":0.015680919749036817,"59":0.025985299244546595,"60":0.06989252187420507,"61":-0.0470700432354124,"62":0.061193866598391496,"63":-0.14498253330085134,"64":-0.025405057268925658,"65":0.05331483834713274,"66":0.03889332673088604,"67":-0.0009403530804803011,"68":-0.01924906206235412,"69":0.01852962724705,"70":-0.07420228176592938,"71":-0.012493558793871182,"72":-0.014197687447551236,"73":0.09026894527511303,"74":0.04008748504200176,"75":-0.05669954293074426,"76":0.08962690677634903,"77":-0.09266812866518533,"78":-0.09631960012840227,"79":0.10904496206185414,"80":0.10295405609058848,"81":-0.029843124159596172,"82":-0.0012663908069499195,"83":0.02904678455085808,"84":0.11325188651062044,"85":-0.08439067113199089,"86":-0.013134361839719604,"87":0.041579633060901094,"88":-0.05778891815001827,"89":0.06775028958383157,"90":-0.005679022835920188,"91":-0.003233573359220389,"92":-0.06202919797129383,"93":0.04693595355398223,"94":-0.046960614732746916,"95":-0.10026678972138972,"96":0.06856960551266701,"97":-0.03523236811584762,"98":-0.004609640986796176,"99":0.0036842528633129336,"100":0.03637301096635842,"101":-0.08732084952122408,"102":-0.2074720955382297,"103":-0.06177923835972899,"104":0.021972104397102413,"105":-0.06666702710078488,"106":-0.057905387630812315,"107":-0.1605226851283188,"108":-0.2608971563718265,"109":-0.10589396249240386,"110":-0.027407845898465417,"111":-0.07766340750555809,"112":-0.04661381788291475,"113":0.01897970920992229,"114":0.0708355248102875,"115":-0.13050858666893253,"116":-0.10887602305936427,"117":0.03910040245926527,"118":0.07854256401512343,"119":0.005952454765838846,"120":-0.0016804400908812672,"121":-0.11005737792895957,"122":-0.19695475079715125,"123":-0.05867265416041606,"124":0.08043017335042978,"125":0.008173137143591637,"126":-0.026488737672048762,"127":0.06734676050728336,"128":0.09959177324546205,"129":-0.2310032676046832,"130":-0.0018119327546885498,"131":0.0680259901283076,"132":0.009253143543238775,"133":0.001608389849989446,"134":-0.020789154279923682,"135":0.005710761927724592,"136":-0.05799588055619039,"137":0.0014280491806965094,"138":0.019078733123371924,"139":0.10395959810042318,"140":-0.026509679801308188,"141":0.008327640942177056,"142":0.08718907761143194,"143":-0.1277083672922681,"144":0.12559439370651995,"145":-0.10673068834424554,"146":0.0673116927036678,"147":-0.11074689005994123,"148":-0.0032741420484582373,"149":-0.038927972252800924,"150":-0.01581501041489584,"151":0.03712392061897185,"152":-0.01851763546133356,"153":0.11557863743154441,"154":0.004533133727702911,"155":-0.015404638474070148,"156":0.0620709702247005,"157":-0.08952830036044478,"158":0.1009315488940324,"159":0.1323064257194286,"160":0.02549372300972745,"161":-0.1149436224144057,"162":0.03407376909006366,"163":-0.1658386461764516,"164":-0.18850526901153056,"165":0.07486148211615994,"166":0.14648415632345196,"167":-0.08870482437221884,"168":-0.0006208796216344349,"169":-0.00860994210843971,"170":-0.12584041226213474,"171":-0.2553549864842517,"172":0.04132542894976254,"173":0.058931207658447296,"174":-0.032808640646000156,"175":0.010255338166992633,"176":0.0726481888753896,"177":-0.10713269117567084,"178":-0.2252069856878088,"179":-0.004421022946297234,"180":0.09100569828976629,"181":-0.0430534221385594,"182":0.013738587659291247,"183":0.12089823595320613,"184":-0.09630896217954386,"185":-0.1422790827188163,"186":0.00007611389718031255,"187":0.1083544003809353,"188":0.014195086560670356,"189":-0.029510909402087473,"190":-0.0932629038287029,"191":-0.013298484174605068,"192":-0.13750222724665379,"193":0.03334527487202843,"194":0.021485818762966128,"195":-0.055952490725350475,"196":0.06603083407306495,"197":0.08255748390499855,"198":0.09936193364006561,"199":-0.10388175268614397,"200":0.17984664354678434,"201":0.15177080737807983,"202":-0.0681215616464497,"203":-0.021491013276085026,"204":0.09298915133241217,"205":-0.004682137373608307,"206":-0.11454055858859875,"207":0.10614715550647447,"208":0.06947175864924793,"209":-0.023028814460045052,"210":0.05943730845822301,"211":-0.08113926084942984,"212":-0.010826545494314345,"213":0.036724846552952974,"214":0.021812402420475722,"215":0.0910621319101052,"216":0.05968190080053679,"217":0.06660927648490161,"218":-0.061068007407445925,"219":-0.13133241202952703,"220":-0.022138003651350074,"221":0.08036450989258072,"222":0.03430376646207368,"223":-0.13142047789320704,"224":0.05034366968728801,"225":-0.103366651933499,"226":-0.0955947820524692,"227":-0.05291242221375379,"228":0.033477309134887875,"229":0.19211862566926616,"230":0.04452627122088167,"231":0.14830373931900367,"232":-0.055092073201827414,"233":-0.008310787277652847,"234":0.0019203993914048445,"235":0.09243375026822223,"236":0.1153522590507836,"237":0.10537616031237519,"238":-0.029573281446376515,"239":-0.07100847492278017,"240":0.025473497789520017,"241":-0.11955269340377245,"242":-0.0050303163750256,"243":0.0600425928004551,"244":-0.00840834057064774,"245":-0.044643291196524736,"246":-0.0023110215739831617,"247":0.16072773464439358,"248":-0.15875529374329944,"249":-0.16761636279358366,"250":0.16322598103723562,"251":-0.011997694475543044,"252":-0.04651764170256333,"253":0.001106552760069668,"254":-0.04923720496428363,"255":-0.09817684004010765,"256":-0.04031216148828567,"257":0.16250675474646023,"258":0.0995467759854437,"259":0.04812909650231777,"260":-0.0011387338903343612,"261":-0.02701552530369776,"262":-0.10014863714775873,"263":-0.14299852066704882,"264":0.0798347692236438,"265":0.05432093112985551,"266":0.08425775294658251,"267":0.004694700087912286,"268":0.024777794597037876,"269":-0.11072255574806747,"270":-0.08786834739891575,"271":-0.007829355101151715,"272":0.06542906818326656,"273":0.08384339128518944,"274":-0.007350957706846331,"275":-0.1441723765681079,"276":-0.055867686151006436,"277":0.0114500866945491,"278":-0.035539423771439003,"279":-0.15012152692440422,"280":-0.012317174991643998,"281":-0.060944854788802814,"282":-0.08245555474069251,"283":-0.0896248788021303,"284":0.06389249847633123,"285":0.031181161150402283,"286":0.07754528389057055,"287":-0.07781368648962197,"288":-0.09000925164312691,"289":-0.07097346070258258,"290":0.03181231441351933,"291":-0.08475865241186263,"292":-0.010602299103233948,"293":0.00976550698545623,"294":-0.1061106435391388,"295":-0.10884022434846244,"296":-0.004829586348734045,"297":0.02160794969359068,"298":-0.07732050930684892,"299":0.043179274643749654,"300":0.07991730902103097,"301":-0.020236608287032932,"302":-0.054021681254269004,"303":0.07436064540591088,"304":0.045934797591614444,"305":-0.014716812564046583,"306":-0.04815879751570947,"307":-0.02882369057078361}},{"sx":1,"sy":1,"depth":308,"w":{"0":-0.019715866414430825,"1":-0.037618696378510216,"2":-0.07623341266615208,"3":-0.07875423698359509,"4":0.03979934842208793,"5":-0.05459496457713048,"6":-0.04566083091182106,"7":-0.14104925354628486,"8":-0.036107959695893886,"9":-0.11459516303050844,"10":-0.020394002359178716,"11":-0.11952455542132963,"12":0.06222611780929743,"13":0.049475693220058646,"14":-0.08360140796063256,"15":0.05317312221780418,"16":0.013047923459031278,"17":-0.05127342118240825,"18":0.10282362786384679,"19":0.166755635242398,"20":0.046510646631549045,"21":-0.07805073581543545,"22":0.006750938329727771,"23":-0.08151562341609413,"24":0.011968912478168434,"25":-0.06713101589770741,"26":0.0644038958917433,"27":-0.027144630943975505,"28":-0.0805744393336124,"29":0.041353867480979856,"30":-0.06767134534710571,"31":0.01600746714458028,"32":0.01429849937131645,"33":0.048011052461777386,"34":0.06572095550345361,"35":-0.12866295074480807,"36":0.008660597572444513,"37":0.07727921738417837,"38":-0.15894138494531082,"39":0.024567914934314802,"40":0.16495412624332415,"41":-0.13475215644016644,"42":-0.027911823019010493,"43":-0.000021115427399587554,"44":-0.08485739642415627,"45":0.05257511285355725,"46":0.03518997584291769,"47":0.13870390399532967,"48":-0.0772765313082797,"49":0.010004003205010643,"50":-0.02206760057739073,"51":-0.05395020062253028,"52":0.044519849517477325,"53":-0.08560660280216202,"54":0.030893441242053718,"55":-0.02389713368427458,"56":0.06729278132572233,"57":0.09142588102691707,"58":-0.013774367152203348,"59":0.08750771413393298,"60":-0.008389807233586106,"61":0.14071914541277109,"62":-0.02316961435943598,"63":0.018671319979577473,"64":-0.10554291600917794,"65":-0.15984227157015338,"66":0.12011105236932333,"67":0.05420718646234118,"68":0.032563864608590204,"69":0.000796658850378893,"70":0.064699606444056,"71":-0.060608350901537406,"72":-0.11970234482181089,"73":0.05565540816268186,"74":-0.0340588219911324,"75":-0.003189017668764472,"76":0.08169589668211583,"77":0.0760391227521676,"78":-0.07891016038166539,"79":-0.14885415741021524,"80":0.022380596605907584,"81":0.09274436881515846,"82":0.15517465987410764,"83":0.15585865293948595,"84":0.08428814288887398,"85":-0.0012333927613383555,"86":-0.11910040287109189,"87":-0.0020505532490136787,"88":-0.08656251354129454,"89":0.04593249951143236,"90":0.0657878516635196,"91":0.07680373021157197,"92":0.002389094140033605,"93":-0.14887273780284896,"94":-0.11288937732768992,"95":0.07733539107997306,"96":0.12152911363776751,"97":0.05231470417208586,"98":-0.033380913725231415,"99":0.10532975223138513,"100":-0.012223099117142793,"101":-0.002752965744151058,"102":-0.07517470556640547,"103":-0.005067996778203438,"104":0.05976361567496966,"105":0.022503484895899664,"106":0.05314000296549037,"107":-0.05624333781293112,"108":0.05171022182387452,"109":0.05864977257492881,"110":0.060370817873441215,"111":0.07790108078425863,"112":0.09072135478925866,"113":0.06357742148380481,"114":-0.08991087664767089,"115":0.005838842669284281,"116":0.0762417299432951,"117":-0.010006542810897643,"118":-0.05948335360883962,"119":-0.022533009427869927,"120":0.10179154304321174,"121":-0.06613323589742331,"122":-0.011642726875560616,"123":0.21196673223395285,"124":-0.16818486792359136,"125":-0.10332885302842755,"126":-0.030935294045765813,"127":0.07966060932139675,"128":-0.013008056302165047,"129":0.007608334300312235,"130":0.24472204393738264,"131":-0.09927282139463012,"132":0.09226705052512517,"133":0.11732824543120944,"134":-0.059937476988524134,"135":-0.08438605013666461,"136":0.10182659103898685,"137":0.14227537310083174,"138":-0.06830314320702793,"139":0.07667161785412703,"140":0.17099819836796615,"141":-0.13512576744181157,"142":-0.08529442047273876,"143":-0.05445905321770341,"144":0.3033128081429477,"145":-0.1232644125593866,"146":0.01739626214711107,"147":0.04359756320242956,"148":-0.016423367285103546,"149":0.05286509791527803,"150":0.1769429548036396,"151":0.3202480176303637,"152":0.07561997156518284,"153":-0.0711312775980374,"154":-0.03570307740753046,"155":-0.0023229380663347342,"156":-0.05320665333242651,"157":0.09004347774223101,"158":0.22123102042826095,"159":0.09366743923437966,"160":-0.031228490491722983,"161":0.0164406068218748,"162":-0.030244447911695265,"163":0.15138439515157864,"164":0.18113915774225764,"165":0.25394022603910815,"166":-0.02597971708967732,"167":-0.012381286996116942,"168":-0.0015547923313487403,"169":0.1946178105776598,"170":0.13973019963712968,"171":0.310477625296188,"172":0.16085121063080737,"173":-0.013213359326493588,"174":-0.04430064043934387,"175":-0.030493077877270836,"176":0.2332683660591451,"177":0.09704245616689137,"178":0.31251221747617774,"179":0.13549482566750617,"180":-0.021416696868583357,"181":0.0644089693009201,"182":0.055329193471803664,"183":0.0959799164728265,"184":0.20429917052568897,"185":0.09309675207071946,"186":0.1400185434851701,"187":-0.07173726359727664,"188":0.022098346229845186,"189":-0.0428185752672219,"190":0.1697396688666383,"191":0.2427630427270162,"192":-0.08732326747529945,"193":0.0164531645134697,"194":-0.27848701692129124,"195":0.04353966331633849,"196":0.018921314066131723,"197":0.0324710384109413,"198":0.24278709254946426,"199":-0.14619513296871034,"200":-0.00039848299505499155,"201":-0.1989552728205538,"202":0.12828285159542635,"203":-0.004552247021756172,"204":0.18658073979146922,"205":0.4107652756722557,"206":-0.24976137271948579,"207":0.022618243989659392,"208":-0.11895891844224742,"209":-0.06705702280491649,"210":-0.003497414746072229,"211":0.0831052090871433,"212":0.14526969822337604,"213":0.07317145797030071,"214":-0.12024627881091748,"215":-0.061976525262845965,"216":0.08199916117346587,"217":-0.07994147135014142,"218":0.05045398619932994,"219":0.1626552467672777,"220":0.012483739674868526,"221":-0.09645785701941768,"222":-0.13301808335850343,"223":-0.05403465964720283,"224":0.014756653476945892,"225":0.05425300715615303,"226":0.12710322749896708,"227":0.03259702228199762,"228":-0.07219826040368423,"229":-0.11107697978406136,"230":-0.09397179226546716,"231":-0.0019478934469516292,"232":0.08023269541973893,"233":0.21548731867748386,"234":0.05528474164579501,"235":-0.1370657329074797,"236":-0.19328199018828296,"237":-0.1378613317159488,"238":-0.03943657945486558,"239":-0.06535223061042929,"240":0.018969990412101494,"241":-0.2312482613507277,"242":-0.13509107268208018,"243":-0.15613536330284802,"244":0.03495081189699916,"245":-0.07666177374095003,"246":-0.04150151836034506,"247":0.049540804607808075,"248":-0.2587499691977569,"249":-0.10375254324092487,"250":-0.08322241129025718,"251":-0.09037450320539304,"252":-0.03076496056448426,"253":0.06820906425167066,"254":0.08255842286991409,"255":-0.2414402289524721,"256":-0.13146869822922022,"257":0.04336735118338784,"258":-0.16282149096678258,"259":-0.03883623862474627,"260":0.14739185477299904,"261":-0.04437478822446103,"262":0.06882541243989306,"263":-0.12627688326787406,"264":-0.007938787654897743,"265":0.034584624674533,"266":-0.030702813440817423,"267":0.011729305372367837,"268":-0.00931185653977989,"269":0.06459722161687396,"270":0.029369167745928362,"271":-0.07044444697396622,"272":0.044824607273675245,"273":-0.04601847634824683,"274":-0.058272630011116384,"275":-0.06384719574156907,"276":0.11394604840241764,"277":-0.07492321917279551,"278":0.0038841637817379534,"279":0.031085908444309997,"280":-0.1656253216381972,"281":-0.0784706760272207,"282":0.0046455854642393195,"283":0.11495559502792707,"284":0.01553812830573239,"285":-0.03140149562845387,"286":-0.0791400035990897,"287":-0.05924596196861175,"288":-0.11748800267333796,"289":-0.07413900009497443,"290":0.0011779870367871691,"291":0.022002971040998697,"292":-0.06728504503904219,"293":0.014135204334900148,"294":-0.006867246991721085,"295":-0.06204781811858936,"296":-0.04545861094745227,"297":0.017558229540308078,"298":0.1098619813183069,"299":-0.16184842253174636,"300":-0.05380567174115309,"301":0.07132274150367311,"302":-0.040909298439943696,"303":0.014922546108358746,"304":-0.009660082840119152,"305":0.08189747797117582,"306":-0.10038774230944524,"307":0.05054568491053841}},{"sx":1,"sy":1,"depth":308,"w":{"0":0.06942872048289951,"1":-0.08326310040583157,"2":-0.06379343685984092,"3":-0.10018687670516839,"4":0.03954934098177094,"5":-0.028197088525219835,"6":0.05962188498602702,"7":-0.017683979385412767,"8":0.04599080949813968,"9":-0.06069572559954193,"10":0.0750433014980564,"11":-0.08286620515385038,"12":-0.062194485300306655,"13":0.08543157792916718,"14":0.012624939153608199,"15":0.047001598946769876,"16":-0.06841396630073215,"17":0.09630315599846866,"18":-0.1662726799488005,"19":0.005232741827730861,"20":0.05755046278334951,"21":0.0438419690017125,"22":-0.009452041483464246,"23":-0.14933497750127867,"24":0.09273734846069653,"25":-0.08870063236375582,"26":0.041739015754882855,"27":0.04551846839772141,"28":-0.0206128370320194,"29":0.10381259003619149,"30":-0.1078264470676392,"31":0.07667173644686603,"32":-0.06235057652808565,"33":-0.09469405215551584,"34":-0.022331110275129205,"35":0.006312225934162105,"36":-0.05598790965906897,"37":-0.07191595289330592,"38":0.10249263263058697,"39":0.0033889076143821697,"40":-0.03839866523100751,"41":0.030635632078008217,"42":0.10132383060751428,"43":-0.007333020264002184,"44":-0.008341406779609891,"45":0.10799129611384264,"46":0.06962560974908295,"47":0.03781193494308595,"48":0.09204685889261625,"49":-0.09398936842568073,"50":0.011846987131932184,"51":0.12383556494626169,"52":0.0975064233139339,"53":0.130205886515479,"54":0.06047198049495681,"55":0.03197133613527034,"56":0.00849353465034904,"57":-0.06168599395069526,"58":-0.08702335576282667,"59":0.1039811401989704,"60":0.09783575917676775,"61":0.10283936759927689,"62":0.1056794894961575,"63":-0.049211838873259604,"64":-0.0601353043269394,"65":-0.03345592526729569,"66":-0.04402790358268627,"67":0.012828282267064717,"68":0.05629978116307516,"69":0.08325745152859261,"70":-0.1503425166569322,"71":-0.12214976426427666,"72":-0.042508942417284985,"73":0.15249770518521102,"74":0.009901229363852522,"75":0.042489323947515915,"76":-0.03947597359927315,"77":-0.06908931704805527,"78":-0.004603020281315419,"79":-0.020326241356495564,"80":0.183088619376571,"81":-0.0493297946364232,"82":-0.08965379695228742,"83":-0.08054850323259685,"84":-0.004369413597349819,"85":-0.04230001230588975,"86":0.02206544498443031,"87":0.11527949896829015,"88":0.1174935910158332,"89":-0.12262850804358957,"90":0.07004157184426521,"91":0.17475658204033784,"92":0.01801818051998419,"93":0.0038453539296995965,"94":-0.03541527070891413,"95":0.00576504128660429,"96":-0.11250946911845369,"97":0.015761037706574308,"98":0.1090853873455846,"99":0.03636997537777272,"100":0.06932180046797894,"101":-0.11882732560679769,"102":-0.0244437840542972,"103":-0.09586669020888293,"104":0.07593787670090021,"105":0.0607322949871213,"106":-0.08102651997144614,"107":0.018230589299524647,"108":-0.23786324101739556,"109":-0.05238929620447552,"110":-0.07729335951033744,"111":-0.04418548962959962,"112":0.07307096276723114,"113":-0.13363949342165002,"114":0.09543403544527865,"115":-0.025915015887412966,"116":-0.12940134355449495,"117":0.02722286409183871,"118":0.12333940166991307,"119":-0.07943654889892683,"120":-0.07273328535721554,"121":0.05377895150100769,"122":-0.011981101038043998,"123":-0.2122961421042874,"124":-0.009868053376545614,"125":0.07056889545175375,"126":-0.07389380241868086,"127":-0.01475959532859693,"128":-0.07825917715462306,"129":-0.08029877125428429,"130":-0.21764110288046853,"131":-0.0024277913373978548,"132":0.08684814256581111,"133":0.01197088492112925,"134":0.055505063153041684,"135":0.08351460808010895,"136":0.07097656894033831,"137":-0.16328451095384947,"138":-0.02974769645839628,"139":0.05524406666810673,"140":0.004419358597510091,"141":-0.008351521366399866,"142":0.04833086956351169,"143":0.06431716809288948,"144":-0.1365422662084158,"145":-0.04779693034463597,"146":0.16673988024213116,"147":0.19786809009303807,"148":-0.09985604183977129,"149":-0.04451707505867455,"150":0.1567292529371186,"151":-0.11250400187930171,"152":0.034404381145755045,"153":0.05994820598782246,"154":0.12636067368316484,"155":0.015988077411152574,"156":-0.11512959387192535,"157":-0.11516215365114821,"158":-0.09865666816754817,"159":-0.03747657604556841,"160":0.03616433192310683,"161":0.17095273648023612,"162":-0.011170073643860938,"163":-0.08502173039274465,"164":-0.20601229853515546,"165":0.037430402795192365,"166":-0.001258407241658234,"167":-0.11451830071978114,"168":-0.005401970945085873,"169":0.12259327084373309,"170":-0.03933303365929969,"171":-0.20962749882504558,"172":0.09606747357418333,"173":-0.14900226625821422,"174":0.03214409438194389,"175":0.05543319486102569,"176":0.08349311535524181,"177":0.02778849486549321,"178":-0.08731868080229922,"179":0.08516468940898492,"180":-0.11176495448121347,"181":0.05066572545447876,"182":0.07264021095673673,"183":-0.07025174068140713,"184":0.045536145832363414,"185":-0.017550969509736083,"186":-0.01760117041741707,"187":-0.020951671219113146,"188":0.05285884072746702,"189":-0.05697255240604747,"190":-0.06266972477588569,"191":0.010488265809895076,"192":-0.009588314650668743,"193":0.029449935159111516,"194":-0.08389512333080303,"195":0.07209989326987644,"196":-0.12304609188082008,"197":0.002965721897583491,"198":0.11387338913836492,"199":0.029112033940902008,"200":0.04325793861310416,"201":0.02395362293657293,"202":0.09204183053815591,"203":0.020394367013232696,"204":0.02600674716432468,"205":0.022295450716815685,"206":-0.06915191805812744,"207":-0.051019637189076525,"208":-0.04605160437035794,"209":0.14421879029936618,"210":0.0031608182862170315,"211":0.0979016893416096,"212":-0.0699363075693155,"213":0.03995476121357804,"214":-0.10918450848111923,"215":-0.012958825555069116,"216":0.13586151970733204,"217":-0.019710510942006928,"218":-0.06507883883071047,"219":-0.07383945715123315,"220":-0.059574094504156336,"221":-0.11887094484024284,"222":-0.025829136702621432,"223":-0.057531124492834984,"224":0.05996049144003975,"225":0.01358537780507979,"226":-0.31502729345338193,"227":0.031177402572460242,"228":-0.07222655149341269,"229":0.03892989371594579,"230":0.08090342177454228,"231":-0.06152537900942517,"232":-0.03237526714843503,"233":-0.22851414542424858,"234":-0.1318573674457021,"235":-0.013563304626782374,"236":-0.0692325956123086,"237":-0.12068029005778691,"238":-0.13049888171343615,"239":-0.07632352788505856,"240":-0.06991176713374327,"241":0.059534419622440674,"242":-0.03902100344158729,"243":0.020655833805446083,"244":-0.07686200140363697,"245":-0.09970280368784028,"246":-0.024745724778248126,"247":-0.054579665935364084,"248":0.15905556697318543,"249":-0.02541311225588548,"250":-0.015189344947215747,"251":-0.04939165403309748,"252":-0.022770303483624788,"253":-0.0911437313471456,"254":0.13829830466927154,"255":0.06617218745730938,"256":-0.08120448850682062,"257":-0.028235246056211038,"258":-0.14531982593078452,"259":-0.005818081197386072,"260":0.002933764445619297,"261":0.08052388056481277,"262":0.18401063249902483,"263":0.002314397871590254,"264":-0.028730681409068457,"265":-0.03236713771878921,"266":0.15023358584333887,"267":0.05966991259198924,"268":0.18524034494245042,"269":0.017570793226799507,"270":-0.008191776726199562,"271":-0.0460781382799381,"272":-0.0013846829665501833,"273":0.07016632558369504,"274":-0.04534003565405227,"275":0.011443398442247408,"276":-0.014041030806853063,"277":-0.03759332743616384,"278":-0.18240050653353265,"279":-0.012277454369328596,"280":-0.06311323302516296,"281":-0.08425868476689988,"282":0.0313658963029162,"283":0.0889225596528485,"284":0.004850786564386439,"285":-0.11044916271434557,"286":-0.10761729191207167,"287":0.016118061496526725,"288":0.02496790678530095,"289":0.027374940816213847,"290":-0.0443842060044774,"291":-0.0005686610194960853,"292":-0.02921353629072378,"293":-0.03801396817289724,"294":0.036178278922625616,"295":-0.11129898833417318,"296":-0.04806842672860937,"297":-0.07079342812470815,"298":-0.02807990123241494,"299":0.07511466211324606,"300":-0.09928754427299143,"301":0.004414662673803779,"302":0.012477318689226118,"303":0.034947452509487,"304":0.0424146480012089,"305":-0.02863653946693964,"306":-0.1567292314548673,"307":-0.05163565495021706}},{"sx":1,"sy":1,"depth":308,"w":{"0":0.03733340161374372,"1":0.05236840940923306,"2":-0.1680411300745263,"3":0.04557554213613568,"4":0.02346389763080859,"5":0.0076167756247226045,"6":0.013611421661781692,"7":-0.07163250452728169,"8":-0.09742979715143733,"9":-0.14992153062337946,"10":-0.025370523773951145,"11":-0.04264923663290816,"12":0.05815305605164479,"13":-0.05698340161385388,"14":-0.15074085089475756,"15":0.009830455300814367,"16":0.027630879762653094,"17":-0.09529716487487443,"18":0.03936188800059285,"19":-0.12201626447407253,"20":-0.04205642502527446,"21":-0.11562810481961251,"22":0.052655429357042274,"23":0.06428052616698525,"24":0.08280856763952665,"25":-0.08543862918171027,"26":-0.0550344177178506,"27":0.028065367188870136,"28":-0.24232912142725022,"29":0.11499906492194625,"30":0.06762029458705057,"31":0.09606312918313653,"32":-0.00554353232797847,"33":-0.10910077325812262,"34":0.034002519797804186,"35":-0.09015156502793768,"36":0.06228430485258993,"37":0.1058182646219781,"38":0.1508294892677474,"39":-0.07437387518282494,"40":-0.03551970949774832,"41":-0.05383013827594098,"42":0.12998093502513716,"43":0.09087820166687452,"44":0.10971787268239325,"45":0.16481015410251218,"46":-0.13515263773400846,"47":-0.04228874053200184,"48":0.06318147037923301,"49":0.04511604441603647,"50":0.0890126132088063,"51":0.19543287257737715,"52":0.10661021004671047,"53":0.0029832186572854007,"54":0.07608864691228537,"55":-0.02260361999796054,"56":-0.013709885772842982,"57":-0.02052176766663834,"58":0.16988249354063495,"59":0.17135375514431045,"60":-0.13802352996575926,"61":0.10036578254464004,"62":0.005025255818713764,"63":0.017440646433531666,"64":0.09228530811442952,"65":0.11975450067881364,"66":0.12596526278650438,"67":-0.11717249143984722,"68":-0.04188502840915578,"69":0.09036549484902963,"70":-0.015037748300115557,"71":0.07568148935671538,"72":0.01060671431694546,"73":0.04889051426113505,"74":0.03806572313102294,"75":-0.12520743368522777,"76":0.06338022425601857,"77":0.0001654210206364165,"78":0.09326456263821457,"79":0.11228520741633653,"80":0.08749536691788037,"81":-0.06469265651160061,"82":-0.06072022569412241,"83":-0.03540005390428756,"84":-0.0027923196363638376,"85":0.013596225662249505,"86":0.1049052591220473,"87":0.08468233571589234,"88":-0.07219931424617536,"89":-0.00120566564164096,"90":0.08214612392992564,"91":-0.012390958008298886,"92":-0.024253189760641784,"93":0.06296390259863054,"94":0.14377001552676102,"95":0.015948278429975767,"96":-0.0023750300026264483,"97":-0.024135909657494903,"98":-0.10402751339473998,"99":-0.04079255825138876,"100":0.09873477418364722,"101":0.06396663604462967,"102":0.012963231755819116,"103":-0.026624459444230746,"104":0.0439868244819318,"105":0.0465531234602357,"106":-0.047055705044114014,"107":0.04290220374089568,"108":0.05125199713085737,"109":0.0923119249290489,"110":0.0013532512731775279,"111":0.04727488126655871,"112":0.025501260028445518,"113":-0.029151244061646125,"114":-0.035466524485978174,"115":0.13433480313577162,"116":-0.036773565045431854,"117":-0.07196542488436783,"118":-0.16414354020162095,"119":-0.06986062823343038,"120":-0.08359193569969704,"121":0.08227279954146435,"122":0.07047733248463808,"123":-0.06992522079056997,"124":0.02632752080374016,"125":-0.06957454105761307,"126":-0.1154198395736187,"127":-0.08795378283933507,"128":0.03425415440156072,"129":-0.014585806709854527,"130":0.04808266041941741,"131":-0.06604990151687078,"132":0.03200753603527853,"133":-0.03058398826390343,"134":-0.047010933918279034,"135":0.08650769886030371,"136":-0.003130947253183345,"137":0.0675546960852716,"138":0.07302258888559034,"139":0.022620513272658203,"140":-0.05276930506006769,"141":0.09305543737374673,"142":0.056934991865954424,"143":-0.2344141027341036,"144":0.010666884345251829,"145":-0.011846086236246023,"146":0.00491295228883628,"147":-0.032557747110883495,"148":0.047593590444038665,"149":-0.03713126327956725,"150":-0.15361610964710837,"151":-0.04408600077915713,"152":-0.04034545359524256,"153":0.0186550632807758,"154":-0.00904296200625825,"155":-0.09990923363162738,"156":-0.07400375696628853,"157":-0.2446578392209863,"158":-0.10253760540290614,"159":-0.08423306182761811,"160":0.07126196213452185,"161":-0.12289016175011075,"162":0.12043892694597658,"163":0.07669792977954197,"164":-0.43002472445004325,"165":0.11786929012233482,"166":-0.05696915663937441,"167":-0.13902554479625737,"168":-0.0657777026633945,"169":0.07892471138565865,"170":-0.10885468627307324,"171":-0.3439394271136597,"172":-0.019394045405376866,"173":0.010723575499205747,"174":-0.06269814577221292,"175":-0.09423860598635106,"176":0.04450113801715392,"177":-0.09522428131263479,"178":-0.2821683618646729,"179":-0.06824510771278668,"180":-0.09051451978243368,"181":-0.056637363198657746,"182":-0.09335464753885268,"183":-0.025032117867513987,"184":-0.25454799121323035,"185":-0.11359598456521475,"186":-0.2503245621059976,"187":-0.01648085031859196,"188":-0.14270714478009122,"189":-0.15516056390557867,"190":-0.09140320939860071,"191":-0.33616848219073203,"192":0.015656704465089457,"193":-0.4703873837105368,"194":0.1064604706936377,"195":-0.1099462513444285,"196":-0.09763398116928645,"197":-0.06906721823140638,"198":-0.18334691518260976,"199":0.10918161340104042,"200":-0.44410129991703656,"201":-0.08208827176121629,"202":-0.15199038777354237,"203":-0.049073482162318674,"204":-0.10759908575144435,"205":-0.032140450751738554,"206":0.04532974858158189,"207":-0.31959636836217337,"208":-0.06708043718037457,"209":-0.037523577323473806,"210":-0.15008157527209917,"211":0.04221426335437072,"212":-0.03077630376983663,"213":-0.09834357101849428,"214":-0.18054067638061944,"215":-0.12008441998978378,"216":-0.038295901073736004,"217":-0.10547916857378863,"218":-0.10532437318949688,"219":-0.09841161248301925,"220":0.030962466741824145,"221":-0.2483854695036522,"222":-0.05984245802052334,"223":-0.06913726422244311,"224":-0.07048046808423472,"225":-0.10485481387757017,"226":-0.09323239497609585,"227":0.00103223753868986,"228":-0.17962084166712225,"229":0.01978932536418858,"230":-0.08098958727529922,"231":-0.007882103107479914,"232":-0.0038897533834928028,"233":-0.08145899925284256,"234":-0.0016735412503042048,"235":-0.14474205565561876,"236":-0.039387556838160385,"237":-0.07186885675763481,"238":-0.11338684227559626,"239":0.005316587415336677,"240":-0.16580479478963805,"241":0.08815431810620457,"242":-0.0770124515877288,"243":-0.023641454145267554,"244":-0.12047093523912568,"245":0.08291612690119712,"246":-0.04361119298020523,"247":0.033114715008469214,"248":0.08410510952258637,"249":-0.014642830756338567,"250":0.07927199204184257,"251":-0.07559199377369963,"252":-0.043468315505185956,"253":-0.1109644155392108,"254":0.041972484509653574,"255":0.12654534891778116,"256":-0.0926313413408694,"257":0.05069561734462431,"258":-0.06494105531838679,"259":0.0198852545227249,"260":-0.024704526491818268,"261":-0.05469438357164522,"262":-0.032215114421059184,"263":0.057428670270842745,"264":0.07613976496658648,"265":-0.005197662896613389,"266":-0.10658075077434229,"267":-0.0796314766987723,"268":0.009039716700517671,"269":-0.0759652545015042,"270":-0.018410932397841823,"271":0.12048711588806027,"272":-0.03566389565456857,"273":-0.061240913355568555,"274":0.04638838522621426,"275":0.04035706020255567,"276":-0.07303690330182461,"277":-0.2604908181404055,"278":0.015127383458286894,"279":0.017290035980810067,"280":-0.08048370553142185,"281":-0.07485895595636974,"282":0.06500837491938342,"283":-0.19031010724576786,"284":-0.02428164493380018,"285":0.0026897271563576988,"286":0.03190616064607548,"287":-0.2771849961766351,"288":-0.1190856488677941,"289":-0.0032250860404086585,"290":-0.11027807167926085,"291":0.019397378674921573,"292":0.031840754282689315,"293":-0.1317452850018208,"294":-0.13962018309331728,"295":-0.06876502201991615,"296":0.08119183827198828,"297":-0.041402296800382384,"298":-0.0004861088987492288,"299":-0.07400362239547222,"300":-0.11873488048682439,"301":0.026618918141535455,"302":-0.04513925448646063,"303":-0.08145325362597616,"304":0.10625259375843861,"305":0.01567154628181557,"306":0.12925423062978253,"307":-0.06764951229915828}},{"sx":1,"sy":1,"depth":308,"w":{"0":0.05232962496293183,"1":0.03693292703528594,"2":0.15750034600934845,"3":0.03056205415411908,"4":0.14684590548204524,"5":-0.00031068967402957397,"6":0.06615780999890787,"7":0.1151148222926825,"8":0.052665263172860334,"9":0.005914760440956274,"10":-0.0039503009922561925,"11":0.02978777346540495,"12":-0.00564848996806486,"13":-0.10904368818769637,"14":0.0826268635958607,"15":0.022857702701824505,"16":-0.06756540166946785,"17":0.10067961742047446,"18":-0.09228694714211011,"19":0.028296385413932486,"20":-0.015111611046764124,"21":-0.057236250305397224,"22":0.06482505496095796,"23":-0.008488238853677815,"24":0.16526788914927396,"25":0.03995252069993934,"26":-0.07616020253146376,"27":0.037750167918385515,"28":-0.049464077560747964,"29":-0.008160517515918805,"30":0.016412781008753527,"31":0.05613922507768757,"32":0.08129548768349823,"33":0.04975147729996838,"34":0.03927220243538947,"35":-0.0357319534213951,"36":0.08166443425052466,"37":0.018998378933839148,"38":0.09923742499600781,"39":0.1236483535831184,"40":-0.008197847814572537,"41":0.0640077801846425,"42":-0.038965767186123094,"43":-0.04191218912643413,"44":0.08278541739413826,"45":0.06698769730398516,"46":0.004106125060207264,"47":0.02908517569934132,"48":0.054790950879030416,"49":-0.025584777058965,"50":-0.026538502710625377,"51":0.028140758437353634,"52":0.060912767451868285,"53":-0.01284357500118586,"54":0.036268162559427324,"55":0.07592268576147919,"56":-0.05507972016613705,"57":0.05152627137363994,"58":-0.04440601568600136,"59":-0.001512029395953035,"60":-0.08766130231884639,"61":0.12146689976435424,"62":-0.06634368800012322,"63":-0.1255586009099022,"64":-0.05701738373842273,"65":-0.04316054173986029,"66":0.032209248263732095,"67":-0.024762384466436513,"68":-0.010383692352302099,"69":0.034493940844140446,"70":-0.009502379514683577,"71":-0.052061094196728414,"72":-0.0523243128256276,"73":0.03573567227313304,"74":-0.026745101414270268,"75":0.011718165284880922,"76":-0.019750904146993965,"77":-0.10884236448120221,"78":-0.013086723470885638,"79":0.011794717152199211,"80":0.05780716054388211,"81":-0.06222818127826686,"82":-0.025832125000158038,"83":0.05156492047533464,"84":-0.027073979598539754,"85":0.056502817803378756,"86":0.0027681639891151124,"87":0.254189466933897,"88":0.08145590007415505,"89":-0.0059376694354903396,"90":-0.032633163080845885,"91":-0.12259202406268009,"92":-0.06518941244261785,"93":-0.013166217742675833,"94":-0.05058066816247056,"95":0.05206038078748317,"96":0.029488807505355947,"97":0.11647811365217242,"98":-0.028811138062143027,"99":-0.006259677204000337,"100":-0.01926638093677697,"101":0.12366092190143245,"102":0.05185871239293002,"103":0.013591232826455236,"104":-0.0005170322034975895,"105":0.05416248886568934,"106":-0.045171251293372364,"107":0.07649264423080343,"108":0.00991002252882785,"109":-0.05446258748593416,"110":0.03545200977141346,"111":0.01976780928188426,"112":-0.04624201266829798,"113":0.005608862306708738,"114":0.018596505427361062,"115":0.14297204628446106,"116":0.13145884156822057,"117":0.05265845427811955,"118":-0.029380830463769554,"119":-0.050834209681997596,"120":0.04647373059246514,"121":0.06185016230819028,"122":0.053162083409246864,"123":-0.117301508416934,"124":-0.052765132117999575,"125":0.0010901351836965965,"126":-0.10321375581414179,"127":0.07471354204352076,"128":-0.026304657687471828,"129":0.05588564291300831,"130":-0.03943503435346962,"131":-0.034432039614138626,"132":0.016369473351561803,"133":0.019890150151554858,"134":0.049594463687134764,"135":0.01697173267876569,"136":-0.0977957064962825,"137":-0.0704040219418249,"138":-0.0240582536474744,"139":-0.015285719769382342,"140":-0.014300424970289301,"141":-0.10098589501840666,"142":-0.022085154342846188,"143":-0.005437813976773003,"144":-0.018066631549274757,"145":-0.04549678678244633,"146":0.04622183216249537,"147":-0.038966444705132566,"148":0.011113002140574315,"149":-0.08921271704561237,"150":-0.010307611401107971,"151":0.06591869550701275,"152":-0.07080519367017869,"153":-0.05891145235876582,"154":-0.028404485114429983,"155":0.09382674243514166,"156":-0.1911935451405587,"157":0.07485479685638971,"158":-0.07187767281106063,"159":0.03875052686445112,"160":0.06548880942331332,"161":-0.04480508975370984,"162":0.08044637939496739,"163":-0.2050466876570459,"164":-0.09487227648654148,"165":-0.19909183747494505,"166":-0.06224709493039395,"167":-0.016964000903893727,"168":0.025596952908252882,"169":0.08069518966147783,"170":-0.11233091989989416,"171":-0.06266597736424986,"172":-0.21817622136594114,"173":-0.14439190661711737,"174":-0.020948851527074795,"175":0.0769777549950129,"176":0.02721341864429016,"177":-0.22224455290528541,"178":0.012292229175632835,"179":-0.21984766710980144,"180":-0.11505083912601886,"181":0.055857826255364416,"182":0.03581908403636394,"183":0.05321662439868956,"184":-0.17762786165198768,"185":0.12879074958828476,"186":-0.33899873596221636,"187":0.015664848102285932,"188":0.02193780191283416,"189":0.08946635360483901,"190":-0.04044534220526533,"191":-0.1400736981800387,"192":0.2686875542339053,"193":-0.07857451188334445,"194":-0.16014706803813072,"195":-0.036817657875054456,"196":-0.03879264242333418,"197":-0.014767627839036094,"198":-0.19058565458862212,"199":0.360637052384567,"200":-0.05112108939551996,"201":-0.04863575293427524,"202":-0.03888040998420308,"203":-0.0151036958262019,"204":0.04180902716388758,"205":-0.22750205756758027,"206":0.36900417833869886,"207":-0.14016271843649364,"208":-0.06437503829827372,"209":0.024049497608485498,"210":-0.014328936253859009,"211":0.037242568328893264,"212":-0.09576218345566222,"213":0.20398166942866644,"214":-0.1646739804571815,"215":0.03427916329690243,"216":0.014695135728206597,"217":0.11459703433900281,"218":0.03505071092016908,"219":-0.029220043721249964,"220":0.26278167315301937,"221":-0.15325167103700563,"222":0.06373385214998548,"223":-0.0012676524231107203,"224":-0.026240888797406655,"225":0.03763919557513599,"226":-0.11832230743849925,"227":0.13216872204369742,"228":-0.12076703708946207,"229":-0.04198478716621575,"230":0.07010594794350067,"231":0.022987363158268027,"232":0.058466046783465286,"233":-0.04945899732101402,"234":0.25194815579904295,"235":0.06690038913360466,"236":0.0026632079011386484,"237":-0.08934776028084586,"238":-0.05956039331571383,"239":-0.04925233323792064,"240":-0.014427984641515089,"241":-0.011636766227159267,"242":0.1449117253237285,"243":-0.03564185617178447,"244":-0.061680568062822676,"245":0.03775575327686511,"246":0.003967745307013875,"247":0.05674055516075057,"248":0.18302498149816715,"249":-0.0013725692806515022,"250":-0.08558470161228532,"251":0.03806734187323426,"252":0.1279110610129813,"253":-0.041762552856658135,"254":-0.08731752076435483,"255":0.09352485771508215,"256":0.0568355861755767,"257":0.07657754358837808,"258":0.00777827434645117,"259":0.04843619591993039,"260":0.005241891775912359,"261":0.15948621749848202,"262":0.48275597077504606,"263":-0.06071802775612037,"264":0.008098414143132471,"265":-0.008560997083140436,"266":0.04164818968706638,"267":-0.04914186645858302,"268":0.050180571913803616,"269":0.4782707263775654,"270":0.013746029600835236,"271":0.016974235697730333,"272":-0.011822160566925156,"273":0.043235717696502037,"274":-0.03461562643076228,"275":-0.13265738864340998,"276":0.27528914560432477,"277":0.030163761390160637,"278":0.009809492198054371,"279":-0.016363362129998366,"280":-0.010332291495914123,"281":-0.07066601886358073,"282":-0.10723599941912432,"283":0.10740206246289084,"284":0.021767558535855755,"285":-0.03198592828069669,"286":-0.02835968927975254,"287":-0.0023617937489686215,"288":0.012758807259221329,"289":0.019384783421326362,"290":0.12096616321876995,"291":0.11978674577670062,"292":-0.08313947430160061,"293":-0.020681137262634444,"294":-0.013154046722945071,"295":-0.01057653383268228,"296":0.0013301563928038015,"297":-0.06946735238389039,"298":0.024639519680977547,"299":-0.0770664641219864,"300":0.09555809601109126,"301":0.05265057498176837,"302":0.007651571966781031,"303":-0.025741428290615827,"304":0.1339458441630918,"305":0.08418179925132308,"306":0.06301347561729488,"307":0.043146987545763626}},{"sx":1,"sy":1,"depth":308,"w":{"0":-0.02214067833525136,"1":0.04488831427939414,"2":-0.10911888649697811,"3":-0.034741285602880694,"4":0.04717182368498909,"5":-0.016032053387287144,"6":0.05412296094224093,"7":-0.01773959169866478,"8":0.05991744266307167,"9":-0.04375153323959028,"10":-0.05851019297087946,"11":0.022870463906672148,"12":-0.0027030100229046535,"13":-0.0024495907478881977,"14":-0.011030208014911775,"15":-0.02360289774627656,"16":-0.05677289682292635,"17":-0.14529602497423003,"18":-0.02199692515666756,"19":-0.04899575064859613,"20":0.20908445877079057,"21":0.023457468621836185,"22":0.034090258271638245,"23":-0.05490374832252504,"24":-0.09248827687164797,"25":-0.03729578748995529,"26":0.1500820434433215,"27":-0.07079913004184557,"28":0.018729571587032513,"29":0.06468419542069719,"30":0.07867695306182679,"31":-0.14911928439076952,"32":0.05793512328671711,"33":0.11986134316243106,"34":-0.06452425365258968,"35":-0.00023062459709993072,"36":0.009863313163365847,"37":-0.03452095475321867,"38":-0.10092854364054224,"39":0.07286228565366701,"40":0.09887331922962142,"41":0.007653456313344757,"42":-0.04442839389353969,"43":-0.10153698332308031,"44":0.027311718839717742,"45":-0.004133721918030649,"46":0.009250177336897,"47":-0.018988478987230318,"48":-0.01867354081085354,"49":-0.015603072408826765,"50":-0.09429292308926604,"51":-0.03268639328481314,"52":-0.05424925793946378,"53":0.029668127826596478,"54":-0.0006467648969412945,"55":0.016644846155301766,"56":0.05854947677031478,"57":-0.08442161760972511,"58":0.02286071151466625,"59":-0.020203149214780797,"60":0.003953100197193,"61":0.012404462857656373,"62":0.0523743931866414,"63":0.0915458213180436,"64":0.02737582734936919,"65":0.004463958675617956,"66":0.08464518368477032,"67":0.18836836397460954,"68":0.08297638295617472,"69":-0.13043649494507004,"70":0.11832602817698852,"71":0.03168528600812552,"72":0.03934081911585575,"73":0.05030201820251401,"74":0.11116637471112908,"75":0.08093851536698916,"76":0.042760985663412715,"77":0.054622836096222656,"78":0.03036585169012178,"79":0.03484821068845432,"80":0.07749074545109941,"81":-0.027210186396123347,"82":0.06177614659382222,"83":-0.04866715747072706,"84":0.11118752805219738,"85":-0.010558123431182835,"86":-0.059775625998736044,"87":-0.015031361890690606,"88":-0.10512312898291408,"89":0.1385397988791592,"90":-0.05955946611594211,"91":-0.0031027265280758214,"92":-0.08233549713879505,"93":-0.14151030580366022,"94":-0.06322602371258045,"95":-0.08812953002381607,"96":0.029766125412167815,"97":0.007416046882641797,"98":-0.01200507056808636,"99":-0.10382845881444865,"100":0.032875818833312455,"101":-0.05532241998692027,"102":-0.019110200128627124,"103":-0.08717617865329552,"104":0.06424790143717149,"105":0.03383145733447316,"106":-0.014471455184798436,"107":-0.10743532989407974,"108":-0.132610543551254,"109":-0.03989359679738878,"110":0.07341678539174529,"111":0.03276063574101944,"112":0.0025650458886658538,"113":-0.02568327664015092,"114":0.005937322353717934,"115":-0.18525964528039612,"116":-0.02831742858812207,"117":-0.008913934142818119,"118":-0.0425990821380431,"119":0.06744998892107887,"120":0.010689131836193825,"121":0.02323894592874653,"122":-0.12896858706917874,"123":-0.0632125486443785,"124":0.09170266772371044,"125":-0.07354273242946968,"126":0.03030801774268649,"127":0.024835830323918496,"128":-0.005428365948193513,"129":-0.04853702327175502,"130":-0.03354700383819783,"131":0.0905257891065993,"132":-0.1145174074822952,"133":0.11912119009914365,"134":0.000394103183173925,"135":0.0980806773198187,"136":-0.0633518012679504,"137":-0.024927279847583278,"138":0.010411113117516115,"139":-0.04803334799019088,"140":0.11817482843835926,"141":-0.03918372022734011,"142":0.06816759301939634,"143":0.02423126511254242,"144":0.0021978630905118775,"145":0.030524240408662487,"146":0.03616876153695073,"147":0.03298965186283345,"148":0.0010616102751950973,"149":-0.01079425263969243,"150":-0.1285045470064796,"151":-0.019639770955224,"152":0.0877057494561807,"153":0.038539474862780324,"154":0.01585704826676815,"155":-0.11566077276647646,"156":0.02622627016313156,"157":-0.03997024006905892,"158":0.051505872749693954,"159":0.07928357262168738,"160":-0.06913887124076148,"161":0.13625239051808233,"162":0.04855135800109869,"163":0.03308803876781928,"164":-0.06305388944741519,"165":0.16337772607336584,"166":0.03947859941025365,"167":0.15110053020969152,"168":0.028846944062094874,"169":-0.038786189929103446,"170":0.00835029199253024,"171":-0.14429088415880664,"172":-0.0440368853202214,"173":-0.06740361285367966,"174":0.09459175501654965,"175":-0.00035147402538937,"176":-0.018365621515330867,"177":0.084096175962554,"178":-0.1394285601912357,"179":-0.08210854823521221,"180":0.07054693424519355,"181":0.09053478196530389,"182":0.034016738611443324,"183":0.042855848849270024,"184":0.07430952558813646,"185":-0.029456165174035296,"186":0.030135962398991946,"187":0.08419857397678222,"188":-0.0514519417350594,"189":-0.029505631838222798,"190":-0.08253573500344107,"191":0.03777751244686451,"192":-0.054941201309375916,"193":-0.022088421363968623,"194":0.020452700104883828,"195":0.0023247114427000313,"196":-0.07157421921000978,"197":-0.003940923437859147,"198":0.07960146278208514,"199":-0.07471641339454042,"200":0.055364553214025634,"201":0.03729878574863552,"202":-0.12053170004190092,"203":0.06740163846743019,"204":0.0034757994825784766,"205":0.022145445764174352,"206":-0.04235929029074478,"207":0.043927412315013965,"208":-0.10229459348493375,"209":-0.12550214739739773,"210":0.08059421274723756,"211":0.10001798621057985,"212":0.17602719175276033,"213":-0.04058148723109603,"214":-0.011610593937800175,"215":-0.13817140709501463,"216":-0.2101624112906154,"217":0.0196834515129209,"218":-0.08115664973724537,"219":-0.022509523411915623,"220":0.06086451912693735,"221":0.013926021993231893,"222":0.001970456553976295,"223":-0.21785212826734407,"224":-0.1003134028703455,"225":-0.12300010703628712,"226":-0.030906881579956552,"227":0.07793147547331773,"228":-0.0750682286004987,"229":-0.05765389310933764,"230":0.009411432178833367,"231":-0.041719350575525616,"232":-0.09349710512322705,"233":-0.06894644930721772,"234":0.08498087998086004,"235":0.1184377560068125,"236":0.00917864011397187,"237":-0.0755954112270969,"238":-0.07950290612968075,"239":0.003793005537917651,"240":-0.027853495758858367,"241":-0.08352060889552104,"242":0.13184795317286352,"243":0.04142560176729532,"244":-0.03772521564074342,"245":-0.04681537421855507,"246":-0.07967874918145885,"247":-0.04694064334389886,"248":-0.0012309722861790313,"249":0.00020835037730029815,"250":-0.022465210100284953,"251":0.04081048442408844,"252":-0.121369688430542,"253":-0.15221474295182075,"254":-0.18095859513323112,"255":-0.004670712542524467,"256":0.06276809625279024,"257":0.013782845025535126,"258":-0.04169921798002226,"259":-0.037645999489536154,"260":-0.008250528727510033,"261":0.07834579420383748,"262":0.021349245655905288,"263":0.00762407954049035,"264":0.08649707921308064,"265":0.025275490616664235,"266":0.05648573795098183,"267":-0.0806657412846091,"268":0.037282748464420534,"269":-0.04632630835456055,"270":0.07026359059972184,"271":0.13516616131067002,"272":-0.07056928849799445,"273":0.07323616125130664,"274":-0.010912975864721041,"275":0.062148688259073666,"276":-0.06612917308108694,"277":0.05559569638761209,"278":-0.08956668802161581,"279":-0.01579134683149933,"280":0.01608963472017018,"281":0.023628321655772028,"282":0.002195410319403759,"283":0.0025090013937711293,"284":-0.031387508705750876,"285":-0.006270439093458388,"286":-0.008855492379354483,"287":-0.019294679219772994,"288":0.019060482845256854,"289":0.038292015910900944,"290":-0.018437955037138277,"291":0.023726537591452518,"292":0.04559387758639132,"293":-0.0034142714231491424,"294":0.028562741878951012,"295":0.046623575923180983,"296":0.13950406756279646,"297":-0.05056627784061428,"298":-0.03125649182467688,"299":0.03292971240105096,"300":0.06357594000380476,"301":-0.023282582952708398,"302":0.028972882834585732,"303":0.049244336365298985,"304":-0.07579487999794522,"305":-0.017007183288318222,"306":0.008860881245339586,"307":0.002786235509450939}},{"sx":1,"sy":1,"depth":308,"w":{"0":0.04212895889217486,"1":0.09988844243934684,"2":0.03418143892590165,"3":-0.019123291047910277,"4":0.04579821380639616,"5":0.017634640008268167,